<?xml version="1.0"?>
<opencv_storage>
<nnetwork type_id="opencv-ml-ann-mlp">
  <layer_sizes type_id="opencv-matrix">
    <rows>1</rows>
    <cols>3</cols>
    <dt>i</dt>
    <data>
      400 20 4</data></layer_sizes>
  <activation_function>SIGMOID_SYM</activation_function>
  <f_param1>5.9999999999999998e-01</f_param1>
  <f_param2>1.</f_param2>
  <min_val>-9.4999999999999996e-01</min_val>
  <max_val>9.4999999999999996e-01</max_val>
  <min_val1>-9.7999999999999998e-01</min_val1>
  <max_val1>9.7999999999999998e-01</max_val1>
  <training_params>
    <train_method>BACKPROP</train_method>
    <dw_scale>1.0000000000000001e-01</dw_scale>
    <moment_scale>1.0000000000000001e-01</moment_scale>
    <term_criteria><epsilon>9.9999999747524271e-07</epsilon>
      <iterations>1000</iterations></term_criteria></training_params>
  <input_scale>
    1. 0. 1. 0. 1. 0. 7.1428571428571432e+00 -1.4285714285714288e-01
    3.5714285714285716e+00 -1.4285714285714288e-01
    2.3948063043036621e-02 -2.2798556016970864e-01
    2.7996692464552535e-02 -1.7413942712951677e-01
    5.5803571428571432e-02 -1.4285714285714288e-01 1. 0. 1. 0. 1. 0. 1.
    0. 1. 0. 1. 0. 1. 0. 1. 0. 1. 0. 1. 0. 1. 0. 1. 0. 1. 0.
    7.1428571428571432e+00 -1.4285714285714288e-01 1. 0. 1. 0. 1. 0.
    7.9378180145844121e-02 -1.4446828786543631e-01
    2.3573314346028239e-02 -2.4846273320713760e-01
    1.4707717115140665e-02 -3.3180609811757339e-01
    2.7211227880504563e-02 -1.7796143033849984e-01
    2.8011204481792715e-02 -1.4285714285714282e-01 1. 0.
    7.1428571428571432e+00 -1.4285714285714288e-01 1. 0. 1. 0. 1. 0. 1.
    0. 1. 0. 1. 0. 1. 0. 1. 0. 2.2701527658263641e-02
    -2.0249762671171168e-01 2.0395425411200105e+00
    -2.8553595575680152e-01 3.0527414288771444e-02
    -1.4347884715722578e-01 7.1428571428571432e+00
    -1.4285714285714288e-01 1.0995279859883178e-01
    -1.5173486206638784e-01 1. 0. 3.5158996903938244e-01
    -1.6876318513890357e-01 1.7551963839366545e-02
    -3.3103003801045305e-01 1.6164478225279336e-02
    -3.7178299918142471e-01 2.7650650868741099e-02
    -1.8415333478581572e-01 6.4787714511668026e-01
    -1.5549051482800325e-01 1. 0. 1. 0. 1. 0. 1. 0. 1. 0. 1. 0. 1. 0. 1.
    0. 1. 0. 1.1166140003280099e-01 -1.5855918804657740e-01
    1.7995229434794771e-02 -2.5085349832103909e-01
    1.5822419581635407e-02 -3.3765043387209959e-01
    1.5206522898104678e-02 -3.6860611505005736e-01
    2.2746210721858073e-02 -2.4292953050944421e-01
    2.9775934110192158e-02 -1.4709311450434928e-01
    2.3252252821102649e-02 -2.4275351945231163e-01
    5.1309693771566127e-02 -1.9805541795824524e-01
    1.7235755551109965e-02 -3.2092976836166759e-01
    1.5645287092204956e-02 -3.3887691841715933e-01
    2.0292996625479592e-02 -2.7436131437648409e-01
    2.4093982209488975e-02 -2.3901230351813063e-01
    3.5193983791292613e-02 -1.4992637095090652e-01
    3.2467532467532467e-01 -1.4285714285714285e-01 1. 0. 1. 0. 1. 0. 1.
    0. 1. 0. 1. 0. 3.7404147281890669e-02 -1.4438000850809798e-01
    2.0012233615453529e-02 -2.5335487757164166e-01
    2.4311725661665728e-02 -2.5235571236809029e-01
    2.0158063861574309e-02 -2.7858444256695697e-01
    1.2398021054496959e-02 -4.4583283711971067e-01
    1.2420856093874780e-02 -4.7224094868911920e-01
    2.3475461675070072e-02 -2.7513241083182127e-01
    3.0669652536764472e-02 -1.4721433217646945e-01
    5.3436494572590268e-02 -1.8382154132971051e-01
    1.3522178286890316e-02 -3.8754562970227646e-01
    2.7444781040891018e-02 -3.5293988418585848e-01
    1.7476211493182240e-02 -3.0967846765918927e-01
    2.0331419604281999e-02 -2.3584446740967119e-01
    2.3648476932222409e-02 -2.4074149517002411e-01
    2.4080364792749494e-02 -2.8318508996273406e-01
    1.6424893232502798e-02 -2.8874962302739915e-01
    1.7319894269512314e-02 -2.8543185756156292e-01
    1.6353826534177263e-02 -2.8586488781741859e-01
    1.6949460274522776e-02 -2.5288594729587982e-01
    1.6633903344499327e-02 -2.7246333678289897e-01
    5.1031036307982873e+00 -2.0412414523193151e-01
    2.7982693779757536e-02 -1.5502412353985676e-01
    2.0978165619937310e-02 -2.9243562874192608e-01
    1.3968430936338037e-02 -3.9754154444818057e-01
    1.7085560904136880e-02 -2.7268555203002459e-01
    1.5145557540762036e-02 -3.6621958133562604e-01
    1.7928056624480888e-02 -3.3812314793770953e-01
    1.5524051221552464e-02 -4.1262928146886446e-01
    1.3755231576425378e-02 -4.1155652876664733e-01
    3.6423832992397868e-02 -1.9158936154001277e-01
    2.8252537737136780e-02 -1.5595400830899500e-01
    2.0855533118631007e-02 -2.6444815994424115e-01
    1.8839776434974666e-02 -3.4288393111653892e-01
    1.3919743610323080e-02 -3.6998678516238748e-01
    2.2075003552527849e-02 -3.0949154980644045e-01
    1.8458862893633670e-02 -2.9608016081388405e-01
    1.9777534058334423e-02 -2.5631684139601413e-01
    2.0328898774104934e-02 -2.6834146381818513e-01
    2.6676612613440471e-02 -2.3262006198920093e-01
    5.1020408163265307e-01 -1.4285714285714288e-01 1. 0. 1. 0.
    2.3809523809523809e+00 -1.4285714285714285e-01
    2.8571428571428571e-02 -1.4285714285714285e-01
    2.6648363513167267e-02 -3.2617596940116733e-01
    1.4315805596986329e-02 -3.6133093326793492e-01
    1.6941659182266835e-02 -3.2527985629952322e-01
    1.6684356828662209e-02 -2.6194440220999665e-01
    1.7714981143186398e-02 -3.1603526359444534e-01
    2.2358978321485475e-02 -2.6070568722852067e-01
    1.4523275115813276e-02 -3.4710627526793730e-01
    3.9576734325623177e-02 -1.8996832476299125e-01
    2.9642932166037361e-02 -1.4406465032694157e-01
    1.9526429769244201e-02 -2.3744138599400949e-01
    1.7535307268110055e-02 -2.8582550847019389e-01
    1.9050240126275406e-02 -2.8994465472191172e-01
    1.9282351483029894e-02 -2.7496633214800625e-01
    1.9017731651106030e-02 -3.0048016008747530e-01
    2.2385261095459991e-02 -3.1563218144598587e-01
    1.6468334272325538e-02 -3.1158088443239923e-01 1. 0. 1. 0. 1. 0. 1.
    0. 2.2603098296974808e-02 -2.2829129279944554e-01
    2.2279383582941664e-02 -2.3972616735245231e-01
    1.7873097842784451e-02 -3.4709556010687409e-01
    2.5377454414814715e-02 -2.0403473349511028e-01
    3.7203359276901507e-02 -1.5104563866422011e-01
    1.6144558491712601e-02 -3.3742127247679332e-01
    2.4946000462240530e-02 -2.7839736515860430e-01
    1.6540266498591270e-02 -3.0202526626427662e-01
    2.9276207559320633e-02 -1.4345341704067111e-01
    2.7040220500822741e-02 -1.8008786853547945e-01
    7.1428571428571432e+00 -1.4285714285714288e-01
    2.5253720200982394e-02 -1.9647394316364303e-01
    1.1162911443718952e-01 -1.4511784876834638e-01
    3.1458208750061910e-02 -2.0447835687540242e-01
    2.2319816119041633e-02 -2.1203825313089553e-01
    2.1640583349287399e-02 -2.2982299516943216e-01 1. 0. 1. 0. 1. 0.
    7.1428571428571432e+00 -1.4285714285714288e-01
    3.2207831320041542e+00 -1.9324698792024925e-01
    2.9398924554092262e-02 -1.4405473031505209e-01
    4.0369485962701554e-02 -1.5259665693901187e-01
    1.5724355838296757e-02 -3.6606300391554852e-01
    2.7735009811261455e+00 -2.7735009811261457e-01
    8.1168831168831168e-02 -1.4285714285714285e-01
    1.6971790192729867e-02 -3.3604144581605139e-01
    2.0159374578142687e-02 -3.2617868067434869e-01
    1.6112579336342647e-02 -3.6801131204206605e-01
    2.3809523809523809e+00 -1.4285714285714285e-01
    2.8571428571428571e-02 -1.4285714285714285e-01
    2.2321428571428573e-01 -1.4285714285714288e-01
    7.1428571428571432e+00 -1.4285714285714288e-01
    7.1428571428571432e+00 -1.4285714285714288e-01
    5.1031036307982873e+00 -2.0412414523193151e-01
    7.1428571428571432e+00 -1.4285714285714288e-01 1. 0. 1. 0. 1. 0. 1.
    0. 1. 0. 2.8123526574534062e-02 -1.4342998553012370e-01
    2.9519822188580874e-02 -1.9896360155103510e-01
    1.7098683301750860e-02 -2.9478130012218479e-01
    1.9075545672334514e-02 -2.6934670489336332e-01 1. 0.
    4.2107596053325951e+00 -2.5264557631995571e-01
    2.6646967035950542e-02 -2.0518164617681917e-01
    1.6186312898573651e-02 -3.1919409035987240e-01
    2.2672997448322969e-02 -2.5393757142121726e-01
    4.5207956600361664e-02 -1.4285714285714288e-01
    3.5714285714285715e-01 -1.4285714285714288e-01 1. 0. 1. 0. 1. 0.
    7.1428571428571432e+00 -1.4285714285714288e-01 1. 0. 1. 0. 1. 0. 1.
    0. 7.1428571428571432e+00 -1.4285714285714288e-01
    3.5714285714285716e+00 -1.4285714285714288e-01
    6.7409630471275239e-02 -1.4695299442738002e-01
    1.5875015875023812e-01 -1.5875015875023812e-01
    1.6187218801163122e-02 -3.5352885861740257e-01
    7.8771909022379494e-01 -1.7329819984923489e-01 1. 0.
    6.4652169540161530e-01 -1.6809564080441999e-01
    4.9388286754073307e-02 -2.3212494774414455e-01
    2.2762268399159635e-02 -2.6813952174210048e-01
    2.1867092503847094e-02 -2.5846903339547267e-01
    2.8121484814398197e-02 -1.4285714285714285e-01
    7.1428571428571432e+00 -1.4285714285714288e-01
    3.7397157816005985e-02 -1.4285714285714285e-01 1. 0. 1. 0. 1. 0. 1.
    0. 1. 0. 1. 0. 3.5714285714285716e+00 -1.4285714285714288e-01 1. 0.
    2.8121484814398197e-02 -1.4285714285714285e-01
    2.6444013185674031e-02 -1.9462793704656087e-01
    1.9165179769916878e-02 -2.4953064060431773e-01
    2.2733687444312242e-02 -2.5416262562741088e-01 1. 0.
    7.1428571428571432e+00 -1.4285714285714288e-01
    2.6484700367447836e-02 -1.8539290257213487e-01
    2.7256197909267275e-02 -2.0769222806861665e-01
    2.0708734909157107e-02 -2.7873957187725468e-01
    2.9402909557388716e-02 -1.4525037321350026e-01
    7.1428571428571432e+00 -1.4285714285714288e-01 1. 0. 1. 0. 1. 0. 1.
    0. 1. 0. 1. 0. 1. 0. 1. 0. 1. 0. 2.8011204481792715e-02
    -1.4285714285714282e-01 6.3220068008726343e-02
    -1.4414175505989604e-01 7.2236537176673818e-02
    -2.0226230409468668e-01 1.5624957275565862e-02
    -3.2437411304074731e-01 1. 0. 1. 0. 2.8121484814398197e-02
    -1.4285714285714285e-01 4.9609009496734705e-02
    -1.4386612754053063e-01 3.7456504307836813e-02
    -2.0301425334847553e-01 2.8234693993161565e-02
    -1.4343224548526076e-01 7.1428571428571432e+00
    -1.4285714285714288e-01 1. 0. 1. 0. 1. 0. 1. 0. 1. 0. 1. 0. 1. 0. 1.
    0. 1. 0. 1. 0. 1. 0. 4.2668080615468257e-02 -1.8773955470806034e-01
    2.8107617958230129e-02 -2.4509842859576675e-01
    2.8510052563633224e-02 -2.3378243102179241e-01 1. 0. 1. 0. 1. 0.
    1.6614688614112391e-01 -1.4620925980418906e-01
    7.1428571428571432e+00 -1.4285714285714288e-01
    5.1031036307982873e+00 -2.0412414523193151e-01
    5.1031036307982873e+00 -2.0412414523193151e-01 1. 0. 1. 0. 1. 0. 1.
    0. 1. 0. 1. 0. 1. 0. 1. 0. 1. 0. 1. 0. 2.0249746924294324e-02
    -2.0411744899688680e-01 2.4811622631545696e-02
    -2.0295907312604378e-01 1.5190159728522511e-02
    -3.5453832806371544e-01 1. 0. 1. 0. 5.5803571428571432e-02
    -1.4285714285714288e-01 7.1428571428571432e+00
    -1.4285714285714288e-01 5.5803571428571432e-02
    -1.4285714285714288e-01 3.5714285714285716e+00
    -1.4285714285714288e-01 1. 0. 1. 0. 1. 0. 1. 0. 1. 0. 1. 0. 1. 0. 1.
    0. 1. 0. 1. 0. 1. 0. 8.3073443070561956e-02 -1.4620925980418906e-01
    2.8236760513169205e-02 -1.4400747861716293e-01
    1.6643146179346282e-02 -2.6229598378649738e-01
    1.1149054936897516e-01 -1.6946563504084225e-01 1. 0.
    7.1428571428571432e+00 -1.4285714285714288e-01 1. 0. 1. 0. 1. 0. 1.
    0. 1. 0. 1. 0. 1. 0. 1. 0. 1. 0. 1. 0. 1. 0. 1. 0. 1. 0. 1. 0.
    3.5714285714285716e+00 -1.4285714285714288e-01
    2.8612866650880722e-02 -1.6709914124114342e-01
    2.0178152411324354e-02 -2.4415564417702468e-01
    2.1501997546651053e-02 -2.0469901664411802e-01 1. 0. 1. 0. 1. 0. 1.
    0. 1. 0. 1. 0. 1. 0. 1. 0. 1. 0. 1. 0. 1. 0. 1. 0. 1. 0. 1. 0. 1. 0.
    1. 0. 1. 0. 3.7403100705235774e-02 -1.4437596872221009e-01
    2.6835448309263904e-02 -1.8623801126629150e-01
    2.2527834678724001e-02 -2.5591620195030462e-01 1. 0. 1. 0. 1. 0. 1.
    0. 1. 0. 1. 0. 1. 0. 1. 0. 1. 0. 1. 0. 1. 0. 1. 0. 1. 0. 1. 0. 1. 0.
    1. 0. 1. 0. 2.0290222746052692e-02 -2.0452544528021113e-01
    3.1054103629962559e-01 -1.4905969742382028e-01
    1.3732740208951036e-01 -1.5380669034025163e-01
    7.1428571428571432e+00 -1.4285714285714288e-01 1. 0. 1. 0. 1. 0. 1.
    0. 1. 0. 1. 0. 1. 0. 1. 0. 1. 0. 1. 0. 1. 0. 1. 0. 1. 0. 1. 0. 1. 0.
    1. 0. 2.5484712879348372e-02 -1.9419351214063460e-01
    7.1428571428571432e+00 -1.4285714285714288e-01
    1.1160714285714286e-01 -1.4285714285714288e-01
    5.5803571428571432e-02 -1.4285714285714288e-01
    1.1160714285714286e-01 -1.4285714285714288e-01 1. 0. 1. 0. 1. 0. 1.
    0. 1. 0. 1. 0.</input_scale>
  <output_scale>
    5.2631578947368418e-01 4.9999999999999994e-01 5.2631578947368418e-01
    4.9999999999999994e-01 5.2631578947368418e-01 4.9999999999999994e-01
    5.2631578947368418e-01 4.9999999999999994e-01</output_scale>
  <inv_output_scale>
    1.8999999999999999e+00 -9.4999999999999996e-01
    1.8999999999999999e+00 -9.4999999999999996e-01
    1.8999999999999999e+00 -9.4999999999999996e-01
    1.8999999999999999e+00 -9.4999999999999996e-01</inv_output_scale>
  <weights>
    <_>
      -4.6222180089869102e-03 -3.0386965129628293e-03
      4.1951311306622193e-03 1.2393182417243767e-03
      3.9910867379776820e-03 -3.6096718242828603e-03
      2.7212430466679316e-03 -4.3222094542688183e-03
      4.2447361673685078e-03 -2.9648579954383437e-03
      1.8223902578679845e-03 2.2345350336514091e-03
      -2.8510467270295809e-03 3.2893528653748744e-03
      6.6332868772747005e-04 2.3070695693070183e-03
      4.4132864887138209e-03 2.4871913685018442e-03
      6.6752844171497007e-04 4.5411576321843479e-03
      3.9465962783385364e-03 1.9445897513581125e-03
      -2.0512523005369746e-03 1.3795432742528333e-03
      1.5883914200944711e-03 1.6319220725004501e-03
      -2.3643416429982751e-03 1.8106297601928724e-03
      -4.7374210554400140e-03 5.6880728248780491e-04
      -3.6725714549732877e-03 -2.5920662679817202e-03
      2.8725399787440486e-04 8.3635052721691306e-04
      -2.8678647515879736e-03 1.4719575907745769e-03
      -3.0976136310436409e-03 3.9642033701190382e-03
      4.5363844566419630e-03 4.2988454258555504e-03
      4.3015752880493779e-03 -3.7110712366382535e-03
      -4.3361205254166327e-03 5.1566338849717034e-03
      -3.9791159955182053e-03 2.0340101534452593e-03
      1.5944370790950350e-03 -4.0883589033024002e-03
      -2.1511219261158832e-04 -3.6493688271758461e-03
      2.2506392641068844e-03 2.2313667931869938e-03
      -9.4943131670522068e-04 1.9068519598256805e-03
      4.1296695600824569e-03 4.3091136164203139e-03
      -2.1552803689897926e-03 -2.3400453506371706e-03
      -2.3162366264342653e-03 -4.3794371809704746e-03
      2.0824262684492438e-02 -5.4872361911903061e-02
      2.7573276052734928e-02 5.3521293281035026e-02
      -6.4344575583128213e-02 2.7120589180188538e-02
      -7.8031685225657302e-02 1.7410270614461978e-01
      -7.7120144881679453e-02 -1.6791945549933605e-02
      7.1112587735864402e-02 3.0771681355959951e-02
      1.0090841027267870e-01 -4.9962097637094881e-02
      3.8766624699030383e-03 7.6009007117523675e-02
      1.1179088384870094e-01 3.0281706620136579e-02
      8.4424532104796848e-03 -1.3029631553692084e-01
      2.6085835072630778e-02 -5.0797124329528050e-02
      2.2902285659537391e-02 5.2178752219912819e-02
      -6.4415816619303887e-02 2.4498614845974598e-02
      -7.7707404913543152e-02 1.7816393989795540e-01
      -7.8045902383883481e-02 -1.1808031891664062e-02
      7.0333664375261173e-02 2.5532390379953064e-02
      9.3097721959427962e-02 -5.2312006249293573e-02
      -2.0445359477649200e-03 7.6139271884879955e-02
      1.1339696964178735e-01 3.5096102619326053e-02
      8.7081896028496537e-03 -1.2909826850292339e-01
      -1.9820835234015047e-01 6.1097019327379376e-02
      4.8064167805371656e-02 1.4597258710421973e-02
      4.6746205359931993e-02 4.0939230767442686e-02
      3.1558922524939415e-02 -9.7811311197966974e-02
      6.9231814145981070e-04 -1.9152960989436842e-02
      -5.2696489641369006e-02 -1.0142048894724189e-01
      -3.0134329407331947e-02 -4.3656645015191016e-02
      8.0643394290440804e-02 -2.3710283015850958e-02
      -4.4165452595942123e-02 5.0862435604469056e-02
      -2.5155333387854934e-02 2.0070083629868903e-02
      2.3249937278046784e-01 -5.1329239132153738e-02
      -3.8190287010069678e-02 -9.4027790365058081e-02
      6.4353991278246481e-02 -3.3335108884463123e-02
      -7.9379772529011156e-02 -2.1113166203620488e-02
      -9.2907484730529014e-05 1.2420061382405712e-01
      1.0206982489955359e-01 -9.4019553635652387e-03
      -1.3275258100197512e-02 4.1337476046605223e-03
      -1.5200051087165903e-01 5.7803058777939897e-02
      3.4606272281931742e-02 3.7421985487303848e-02
      6.0773959999654070e-02 -6.1133315114032930e-02
      -1.4148682957432207e-01 6.9021520509423825e-02
      5.4125617444421924e-02 4.4368588069624612e-02
      -2.1132861193529470e-02 5.4246887195747780e-02
      7.3170025671487442e-03 -1.4628923132617558e-02
      -1.9172891066064329e-03 -4.9622323813881111e-02
      -4.4766688108798566e-02 -4.4451440993766737e-02
      2.5774090036079465e-03 -4.9833810516341420e-02
      7.5098399086557382e-02 -2.0959310994749923e-02
      -3.6915793225297241e-02 3.7503725602038296e-02
      -1.6519007434237277e-02 2.2269902991274730e-02
      -9.2840574203413139e-04 1.7448383994783758e-03
      -3.6714198014812897e-04 -1.6701089295383009e-03
      4.4756380724683522e-03 4.8388352995544946e-03
      -3.1730998450739799e-03 -8.2291570583766221e-04
      -3.4326616776510261e-03 -8.3727255543920062e-04
      4.2661511845251058e-04 -5.1314044922523240e-03
      -2.4903153421602904e-03 3.2612277774699333e-03
      -2.3221272378894683e-03 -4.9891340139843264e-04
      -1.8271867646407446e-03 -9.8889759958796248e-04
      5.9882747950629084e-06 -3.1209443941522070e-03
      1.4732349167335239e-03 -7.7715963565945428e-05
      -1.0751530896694122e-03 2.0953081912117220e-03
      -4.0504339568270455e-03 4.3371705914425473e-03
      3.6397261437061930e-03 -4.8022760004250648e-03
      -2.0798970233880903e-03 -6.1573182623063751e-04
      -3.7599146918981651e-03 -4.0346363581717877e-03
      2.7628967249706824e-03 1.5133022535191115e-03
      -4.0251695751829623e-03 -1.1026374770916065e-03
      -4.1012339189164053e-05 2.9914963843896969e-03
      -7.7133475314892879e-04 -4.3126864069224181e-03
      1.2229822079533441e-03 -1.4982662338495489e-03
      1.0786112593368269e-03 -2.8019206731116921e-03
      -2.3640450307273724e-03 2.6301756514053591e-03
      -3.7223349398086470e-03 -2.1032321024913234e-04
      2.5588053504673751e-03 -3.2753831401402147e-03
      -4.4240174222727399e-03 -3.3473209221574488e-04
      -1.3899238095676771e-04 -6.1619802347339238e-04
      -4.2278231941955879e-03 -9.0295825450381097e-04
      4.8089652594817750e-04 1.8664975157177254e-03
      -4.1502334254598051e-03 -1.7577368866239030e-03
      -4.4132979181611921e-03 4.0995900545092445e-03
      2.3403234978529733e-03 -1.3745301017782994e-03
      2.1645172021401119e-03 -4.2769013328250770e-03
      -4.4582697855003522e-03 1.3992546603450813e-04
      -6.0246953916726960e-05 4.3838142883372289e-03
      -2.2031123929905938e-03 -2.3478297981410290e-03
      1.3472225875310545e-03 7.3494668397963594e-04
      -3.6565043950433831e-03 -3.6542312224672434e-03
      3.5459343957911652e-03 1.2769589795176646e-03
      1.6813698596694056e-03 5.7499471709463899e-04
      1.5645507249782702e-03 3.5515686524584308e-03
      -1.7673190325954418e-03 -2.8754855272457125e-03
      -9.8206276017617387e-04 -3.2027357207178200e-03
      -2.0933723166414800e-03 3.6389906416246262e-03
      -1.7396568935210109e-03 -3.6687447401666023e-03
      3.6599821157312943e-03 -2.2825251733305340e-03
      -3.8950046222393894e-03 -4.2207101862792281e-03
      -1.1188263884665910e-03 1.8519480255265567e-03
      -1.6026181835985581e-03 -1.1923029500435494e-03
      -4.2266742018087439e-03 3.8375475964581309e-03
      3.7579938271329455e-04 -2.7268634664340168e-03
      3.7670530067799046e-03 4.9331330995699670e-03
      2.2055657533985820e-04 -1.2153775079367718e-03
      4.8641320801089171e-03 4.0690363215115447e-03
      4.5652385490528612e-04 2.9819231910571111e-03
      -4.0664033087593398e-03 4.2141917929488307e-03
      4.3631403397140648e-03 -4.0046069567249042e-04
      -3.2311171202963384e-03 -9.6659743050111319e-04
      -1.0930811726143465e-03 1.5341141373694249e-03
      -1.3721731605861797e-03 3.7396853008890914e-03
      -1.5141699540767691e-03 -3.0424331570659377e-03
      4.5586327237650938e-03 -2.1977635159672331e-03
      2.0064155004187456e-03 -4.8062167688743881e-03
      4.8417855726310939e-03 4.3948817091649675e-04
      -3.3789263406996039e-04 -1.6158935978322030e-03
      -4.8026048631158768e-03 3.4544099285683102e-03
      -5.1615784533290548e-03 4.2282209138255677e-03
      -4.4920314474323660e-03 1.3989283398626753e-03
      -1.0133057403962956e-03 -1.0553091167282952e-03
      8.6816838000349894e-04 3.3737332000804078e-03
      2.6048830683187574e-03 4.1971782999374423e-03
      3.2479562444015873e-03 -1.7701958334028973e-03
      8.5679016893902766e-04 -1.6954380761264928e-03
      4.2114428017525837e-03 -3.7810548118201214e-03
      -3.8776105011889567e-03 -1.5539291110835602e-03
      -2.2949837096613184e-03 -3.5856382456260117e-03
      -3.1024705378622122e-03 2.6222259670192244e-03
      1.6069511524299974e-03 1.7718380107540949e-03
      -2.1873132756900287e-03 1.2560315937435841e-03
      -2.2190361440390174e-03 -3.3835101626067910e-03
      -4.6578290267129078e-04 -3.4250145568218513e-03
      3.2168918263403325e-03 3.0402798916037729e-03
      -5.0451672572618452e-03 -2.8568682370131212e-03
      -3.1503695216996532e-03 3.5552598152417164e-03
      -2.6001430514731002e-03 -7.4868205857372736e-05
      -3.5041813263178771e-03 4.5264328426026781e-03
      9.7420094368280751e-04 3.0924757719915205e-03
      3.7931531252583797e-03 -6.5282265249348508e-04
      5.5224079416243185e-04 -3.5424317066425682e-03
      -1.1804801188050218e-03 1.3635383368507214e-03
      -1.8675520994880157e-03 -4.8516916228133304e-03
      3.8456689399414670e-04 -3.7839748540587585e-03
      3.7572726592869387e-03 -2.7707961119524311e-03
      -2.4649900780121950e-03 3.3445973310662912e-04
      -4.4764712875324450e-03 2.0649106628964849e-04
      4.7901780545260382e-03 1.0675833001688733e-03
      -3.6230892762888559e-03 3.5402342709769238e-03
      2.2069679542109540e-03 3.0318175511530776e-03
      3.4355413588313842e-03 -6.6664299167475236e-04
      4.5416816739315882e-03 4.9196513347845305e-03
      9.2948939446187465e-04 1.0237688039163089e-03
      -2.0265680246258659e-03 9.8045803066563867e-04
      -2.5236784904259641e-04 1.5727924967585093e-03
      -2.9737845426430717e-03 3.2459790776502014e-04
      1.5947003406249819e-03 3.1513907970896482e-03
      3.0038071613091803e-03 -3.6900325129719082e-03
      -7.2227873405410648e-04 -2.5631176026530656e-03
      -4.6680787670235523e-03 4.1578842253704772e-03
      3.6033495123886593e-03 2.1500293050439072e-03
      -2.6400245588015596e-03 3.8919443658380587e-03
      -4.6789493697921621e-03 -4.4294990888884824e-03
      2.7137525926839360e-03 -7.8663643944641373e-05
      -4.6836504848198068e-03 -3.4498204770849906e-03
      1.2180863294188823e-03 -4.2906359919444295e-03
      -1.9449909752313917e-03 2.9909704882622547e-04
      1.7768484712696012e-03 3.9951902542655028e-03
      1.1874384443957414e-03 3.3425340597871046e-04
      3.0630592397158430e-03 1.1239385831826195e-03
      -2.9405788540911868e-03 -3.2177526068619768e-03
      3.7767380277239546e-03 -3.4675452741078131e-03
      4.0542044688994441e-03 -2.2050087471490033e-03
      -3.8082310452576267e-03 -1.3242387019078762e-03
      -8.5703240788172620e-05 4.1790232745207305e-04
      -4.3859117789445184e-03 -9.7886432217794654e-05
      3.8096315466101534e-03 1.3166832152260739e-03
      3.9001798040830911e-03 -8.7691322855022106e-04
      -2.2334106748155705e-03 2.1387270353332272e-03
      9.4741477303509898e-04 3.2776809843691524e-03
      2.5597349874420259e-03 4.7629358835966406e-03
      4.6522053134242366e-03 2.1436730477212740e-03
      5.3599888534833084e-01 -2.1762184641819304e-01
      -1.4839988441760993e-01 -1.3269324910011415e-01
      7.7255866005405627e-02 -1.6639780586912548e-01
      5.5055639872296530e-02 -2.4642763878094764e-01
      1.7256632540227299e-01 3.8774951931162212e-02
      -2.0607980444740336e-02 1.1833112579693719e-01
      -1.7876970157280223e-01 2.8629938437100699e-01
      -1.1732726755587693e-01 -6.0427870193773679e-02
      7.2781134783612395e-02 -2.3458630632184127e-01
      -2.2751312576284561e-02 7.9416610644020252e-02
      4.5058486382770768e-03 -9.6174601915446532e-04
      -3.7238370116547252e-03 -4.8492198355641856e-03
      -3.2454361963900804e-03 -9.6137124957596366e-04
      1.1636826686539073e-03 -2.3734786617177193e-03
      -2.4340587505347496e-03 1.5882099630235022e-03
      1.7380139513505873e-03 -2.4572346692921061e-03
      8.4593978545601098e-04 2.1508474764601005e-03
      -2.8341155177108845e-03 -4.3379392277503046e-03
      4.9522069924225979e-03 3.8021806130561614e-03
      -4.2023458997829249e-03 2.4890338167635664e-03
      2.7582730272604759e-03 -4.8005222207907067e-03
      3.4720062468450584e-03 4.8430646304358990e-03
      2.3225905446661896e-03 -6.2448274252472138e-04
      2.7670991403288673e-03 4.2375092927602704e-03
      -1.5666946068738869e-03 -4.8099360043931771e-04
      -4.1736164466364975e-03 5.0447540664526908e-03
      -2.0022402083267497e-03 -4.0635859889845503e-03
      -3.7001539620513239e-03 -3.0401488521021223e-03
      -1.9154749763676357e-03 -1.8104593166975468e-03
      4.7709303080899690e-03 3.7234437105866723e-03
      4.4469034528249515e-03 1.2081210929098948e-03
      2.8045697418649968e-03 2.9735934405279059e-03
      -3.0776703964572787e-03 -4.0736761839976210e-03
      -2.4061678398991141e-03 3.0285757003596296e-03
      -2.0400096512754951e-03 -4.6608460318135325e-03
      1.9433715851357787e-03 -8.9611890010783083e-04
      1.0115800626243881e-03 2.0171581572102971e-03
      8.7226852291146374e-04 -4.6405093293526043e-03
      -2.7930303777824804e-03 -1.6758350943083019e-04
      3.7283027381945096e-03 -3.6921177166944897e-03
      -1.6190028455905134e-01 8.0540077325535059e-03
      2.5598195160713405e-02 -1.6259515465071369e-02
      4.8056574841967584e-02 1.8393298359153498e-02
      3.4465803563459893e-02 -7.2296960324600479e-02
      4.6784008677607002e-03 1.7898924049054230e-02
      -2.2507418344541355e-02 -6.0458758618997084e-02
      -2.8607638657849530e-02 -1.3986101853736214e-02
      2.7884307525070727e-02 -1.1237693683542124e-02
      -1.9203912484641459e-02 3.7713798618653885e-02
      -4.2273127698685088e-03 5.7161572316743302e-03
      -3.8941865241828945e-02 2.8464704022657935e-02
      2.1483272311145305e-02 -4.1211622945319513e-02
      6.3503587713022766e-02 1.6258117028700766e-02
      -1.6910448864595307e-02 -4.3886085021772582e-02
      2.6805906806279161e-03 3.9917236152083334e-02
      4.0508425444630066e-03 -4.6391448692474545e-02
      -1.8770376410161438e-02 -2.1407856605122816e-02
      -2.0643259731031850e-02 6.4637327140877289e-03
      -3.1303692953635068e-02 4.4313692809609936e-02
      1.9851081374796464e-02 8.6053477264358587e-04
      -2.0914279948437373e-01 8.8813249027806934e-02
      1.0052628788986750e-01 -2.1949408953883240e-02
      7.5750886634729758e-02 8.9550599626088037e-02
      5.3242796262540524e-03 -1.2050353599681564e-01
      1.3523339453117025e-02 3.7662650046674122e-02
      -2.0454567451040170e-02 -1.5007461013890350e-01
      -4.9662726552779826e-02 -8.8971826363668238e-02
      1.1097122421133315e-02 -1.8898703045314557e-02
      -7.8512099599170951e-02 1.0108489322025013e-01
      -3.1417387935364673e-02 2.4482121850125993e-02
      -4.9699685922297440e-02 3.3448681168894379e-02
      -1.2896874264435086e-02 5.0889750388060907e-02
      -1.4085393272498098e-03 -2.6751529952432039e-02
      1.0922689642617921e-01 2.3160017565656853e-02
      3.3891288340610760e-02 -4.2155713283254397e-02
      -7.7466133915187640e-02 6.3206361181901066e-02
      2.3040406976078908e-02 8.0995982036244085e-02
      1.1706536715920485e-01 -4.3319838847918478e-02
      -2.7673943506024343e-02 -8.5098405661174034e-02
      6.1420241828075761e-02 4.0518059408117861e-02
      6.0357079997130974e-03 1.9085719123181320e-03
      -3.2947216760775624e-02 2.6885470335967915e-02
      1.1583612447736227e-02 -4.9158349878418828e-02
      1.0397951794412556e-01 2.3733323745938534e-02
      4.1769387317167145e-02 -2.0165929653046245e-02
      -6.2828586892319474e-02 6.9582926249568175e-02
      1.6542220420770786e-02 1.0231211283224048e-01
      8.9445867533822873e-02 -4.3170955318230578e-02
      -1.5400640196731647e-02 -9.8394927209902908e-02
      7.0274115891699934e-02 3.5725586518169788e-02
      2.9904821543944838e-03 3.9981004829113308e-03
      -1.7410897739944986e-03 -2.3890132687841401e-03
      2.7219068909378630e-03 -1.5109381688957683e-03
      -4.9079910064251341e-04 -4.4968171540691560e-03
      3.0366648676930863e-03 2.5784080154370916e-03
      -3.2024811544971560e-03 6.5361833091588553e-04
      -5.7104037471642844e-04 2.5202446143944386e-03
      -1.6244229450496246e-03 -1.4967346622471046e-03
      4.5911455158443634e-03 1.1306555017772597e-03
      -2.7584856708479416e-03 4.3004599907764136e-03
      -1.8352829806571904e-03 9.1044340448085872e-03
      -3.5428967646267268e-02 2.7039155635424573e-02
      1.7245217662020584e-02 -4.4153076672356205e-02
      1.0886800232104306e-01 2.3544745130912825e-02
      4.4553733852049936e-02 -1.8391711908779189e-02
      -6.4965512471446177e-02 6.8512161532168978e-02
      1.3898784100267760e-02 1.0220768490773555e-01
      8.9771045812075970e-02 -4.4341321212638285e-02
      -1.8391137076432616e-02 -1.0093436079187847e-01
      6.6778784686724671e-02 4.1478778609281584e-02
      -2.4822132040686544e-03 3.1320443306941076e-03
      -3.0594170167893347e-03 -1.6797358629467420e-03
      -3.3916516850200362e-03 -8.2247223663179032e-04
      -1.6507340833260132e-03 3.5503228241826729e-03
      2.2438369107859227e-03 -1.1896025382286948e-03
      -2.3703604244312954e-03 8.1501301634614640e-04
      -6.8774647684911720e-04 2.0143839867692399e-03
      -3.4560666520128767e-03 -1.6602557685581156e-03
      -2.9851985855921088e-03 -4.2043962955563824e-04
      3.7572791747306970e-03 2.8730041767654120e-03
      3.6850077635026380e-03 9.1601571873272227e-04
      1.8695402966991217e-03 3.5710040049291270e-03
      3.4868361620854923e-03 -1.7070394311589963e-03
      -1.8808765233263433e-03 -3.9135880064973547e-03
      -4.2155634466702714e-03 -2.8974083638998887e-03
      4.2786987537993476e-03 -1.6372684045290189e-03
      3.9133700134959277e-03 2.6965460327584624e-03
      -3.2274590273751107e-03 -3.1423401640827001e-03
      -4.1722714547261430e-03 3.1126560121461319e-03
      -2.9403983696358535e-03 2.7637945307189085e-03
      3.4579451589590419e-04 -4.2211646895659698e-03
      2.5037269417637199e-03 4.9840317834888874e-04
      -3.8095684262855144e-03 2.8183658442676766e-04
      2.3067366776788903e-04 4.1472450415337920e-03
      8.3460705108042690e-04 3.3592312305756908e-03
      3.4543373540635467e-03 2.3439200729314597e-03
      4.5319316431903962e-03 -2.7743568275216141e-03
      2.0740849955976420e-03 3.6108947086663091e-03
      -1.8518637361524874e-04 2.9151955750470926e-03
      -2.3231646294866034e-03 1.4449654771581703e-03
      -1.8106989829911040e-03 -1.8763113027263339e-03
      -4.2323117284197697e-03 -2.5881609970301732e-03
      4.1365893147953300e-03 -1.3993123313688312e-03
      7.5449909135864792e-05 3.8256965555875442e-03
      4.1648345921958133e-03 -2.7991060807345198e-03
      3.5923045666686406e-03 -4.0692814441750276e-03
      4.5975427017597870e-03 -1.4089378002142305e-03
      4.6483868324507628e-03 1.0795896284127569e-03
      3.4218347845402274e-03 4.0922466411667108e-03
      3.2791437395225903e-03 3.1961214028584416e-03
      -3.4781056656430125e-03 -3.9248505372236203e-03
      -2.2074839918969080e-03 -2.4193953810689212e-03
      -1.0860524836054661e-03 -1.9910306368118190e-03
      -2.4630508349632518e-03 4.9721636514047981e-03
      -4.4476498303737287e-03 4.1216035412299807e-03
      1.9503864169301190e-03 2.3631935799321366e-03
      2.5807638044203960e-03 2.8208490645188419e-03
      -1.4880283458734765e-03 3.8458340740115150e-03
      6.6164847317532556e-04 -3.4026085369542173e-03
      -2.6925932728446532e-03 -1.8670200949502790e-03
      -1.9003927819591989e-03 -1.9900752107310615e-03
      -4.8833533039605659e-03 -8.6344837260545141e-05
      -3.0286129236561845e-03 3.2882325964885711e-03
      -3.9457090564865380e-03 2.4286799199217455e-03
      -2.2245052718362717e-03 1.5520242354298303e-03
      -4.5743277349277354e-03 -5.7795443158628222e-04
      -2.7276532963887551e-03 3.1007315687943187e-03
      7.6262671216916389e-04 -3.0071283851873529e-03
      -2.0233375328716774e-03 -4.2616302641227633e-03
      3.3334206609794454e-03 -2.0664890143073352e-03
      -1.2762070648342416e-03 -4.5796386699427250e-03
      1.4178719326421057e-03 2.1909772652204786e-03
      -3.3205166925985049e-03 3.4929291632062494e-03
      -4.2121633669489796e-03 1.1210433226217725e-04
      4.3493665750255492e-03 6.6903230814790917e-04
      9.9624815683084815e-04 -5.4183367249056077e-04
      2.1619392244577700e-03 9.6624091935399229e-04
      -2.7498475114410077e-03 4.3889808646610930e-04
      4.5027111806416392e-03 -4.1512057436034026e-03
      2.4813972382113502e-03 2.6434063019427734e-03
      -1.7539321922879505e-03 -3.4635344423030786e-03
      3.1350962297579115e-03 -1.2685192622885204e-03
      3.4127855102790931e-03 3.7262906856386393e-03
      3.8387974867066339e-03 -6.8446600548566292e-04
      -1.7017383343780807e-03 1.0933893825237741e-03
      -5.0769724157731882e-05 -3.3830093635666449e-03
      3.0559439401566125e-03 1.9797527947827851e-03
      1.1368185792216814e-03 -2.5328976291776762e-03
      3.0914463092867124e-03 2.8963006874189868e-03
      -2.3425318066443179e-03 1.6666312855845408e-03
      5.2482729789626559e-01 -2.2830551045459768e-01
      -1.2932420833263927e-01 -1.3402103218276296e-01
      7.2071633410390704e-02 -1.6436288140901525e-01
      3.0213786702012451e-02 -2.3886498173283022e-01
      1.7045579262343516e-01 4.9688866051457767e-02
      1.0979791529545421e-03 1.0061266419512044e-01
      -1.8059657838850160e-01 2.9316370271837117e-01
      -1.2313029276626228e-01 -3.8814292974105200e-02
      8.4536407255829976e-02 -2.3653864689384488e-01
      -3.5819031720494589e-02 5.5189313378388401e-02
      3.1709678794986190e-01 -1.8211783151400424e-01
      -5.4853844419633341e-02 1.6519488066639748e-02
      -1.0333127749871257e-01 -5.0300725180296657e-02
      -1.2902741004888488e-01 2.7870932702134732e-01
      -1.4132207342413461e-01 3.9716288961260997e-02
      1.5147794756010424e-01 9.6758131972333253e-02
      1.6510273484555127e-01 -2.2006483291500664e-02
      -6.9245586851035212e-02 1.3337662603346420e-01
      2.2149706762610491e-01 3.3309558907327542e-02
      7.1755998182483863e-02 -2.1128032663363380e-01
      -4.8480504717683143e-02 -7.3348648260082791e-02
      -1.2883638147098052e-02 -3.1462922889873436e-02
      1.9719773797743350e-03 -8.4588879703874735e-03
      -8.1682463381778314e-02 8.7798233859062241e-02
      -6.5531514594198315e-02 7.5917613244010487e-02
      9.5422272565512209e-02 -3.4196945284255466e-02
      4.6213463587103612e-02 -3.7866218854103094e-02
      -5.0727489633564743e-02 7.5156409916165276e-02
      9.5435474652825383e-02 5.5442280407031107e-02
      3.6813980287865908e-02 -1.0928294964397704e-01
      -1.4706480616878809e-01 3.5956165851709798e-02
      6.7336379257297851e-02 1.0440288413724763e-02
      1.5651401461231038e-02 5.4795344575430047e-02
      2.5971353321746333e-03 -1.2726085688746336e-01
      4.3961924208917955e-03 -8.5869483232968342e-03
      -1.6682263561064732e-02 -1.2261470519945813e-01
      -4.8384371883664339e-02 -4.3350454456577550e-02
      4.7555530366048183e-02 -1.8776414402310354e-03
      -2.7004878315379517e-02 5.0411336683421633e-02
      -5.6900037046888716e-02 1.4975016221193014e-02
      -4.8733211687288225e-03 -4.3511092778275286e-02
      3.8024427775394762e-02 5.7532276562694912e-02
      -5.7855827435623911e-02 3.5819514557897308e-02
      -7.3192726244183479e-02 1.7514847210090154e-01
      -8.2791058547884225e-02 -1.9692202223003746e-02
      6.6091410609266640e-02 2.7573772010508788e-02
      9.8602075698056443e-02 -6.3262268669445287e-02
      1.1273148186311782e-02 7.3338159702437108e-02
      1.0247590878367280e-01 3.8944335436651059e-02
      2.5166287863628307e-03 -1.2793725679641652e-01
      -2.1758198141321409e-03 -3.0590599992911297e-03
      -9.8836094067130255e-04 -4.6080791024415953e-03
      -2.6703209688378506e-03 -3.0532914254879050e-03
      -3.2486462797357546e-05 5.6106984362179219e-04
      6.0585625350131748e-04 1.0503387757240994e-03
      -4.8474521383431082e-03 -3.9158892581727190e-03
      1.1347290762058644e-03 5.1165670444176846e-03
      -1.9913432164625107e-03 9.2954330362806682e-04
      4.5391496251004984e-03 4.0820826087871751e-03
      -8.6489160287584493e-05 4.3206406907318959e-03
      -2.2799016327880148e-01 4.7312290625428063e-02
      4.7788142177892018e-03 2.5499592630828526e-02
      4.4794739863995070e-02 1.1127959140552915e-02
      7.2022400358530261e-02 -3.5814769730910460e-02
      -6.7100127909518522e-03 -3.5248350272871216e-02
      -7.3254496322231646e-02 -2.4019670258543707e-02
      8.3370535199830758e-04 -1.8326360285425603e-02
      1.0608356821029727e-01 -4.7818953723664293e-02
      -4.7344732651641019e-02 2.0435442908621898e-02
      2.0867639059869318e-02 2.6180382012207529e-02
      1.0204904865693275e-01 -1.8206214366943117e-02
      2.8549944832711067e-02 -1.3637692269860352e-01
      1.1375804316980062e-01 1.6794823359660507e-02
      -8.8538613134171454e-02 -1.1076270841037252e-01
      9.2345134900062818e-03 1.4740250923343226e-01
      8.9900147593798843e-02 -1.0720591685426901e-01
      -5.7665713465587520e-02 -3.0938829844231606e-02
      -1.5139220846085893e-01 5.1916810862750976e-02
      -8.8121689645061958e-03 7.5474693752414126e-02
      9.7504904508199826e-03 -3.4473846406936702e-02
      -2.4628555649957234e-01 7.4699650787828295e-02
      1.1401056747132421e-01 -6.3835579268317275e-02
      1.0150612476212591e-01 9.2152264387391450e-02
      7.1429157276851922e-03 -1.8106577395655279e-01
      2.1458345620582513e-02 7.2679373978745146e-02
      -4.2834836102185843e-03 -2.0491875507894428e-01
      -7.9754614498282986e-02 -8.8040278378896858e-02
      -7.7674858772183780e-03 -4.2188927571659421e-03
      -7.8897615722438239e-02 1.2203436739091950e-01
      -4.6074520980910874e-02 1.6878570786646459e-02
      -9.0264711428518028e-03 1.6526959532525989e-02
      2.4308621629690864e-02 -2.1209422073888907e-02
      3.5895387496373873e-02 1.2829550736717540e-02
      2.4316347256571592e-03 -2.2292908444823005e-02
      1.1173162472280385e-03 4.8094882341148767e-02
      1.4307492748213201e-02 -2.6883705308013844e-02
      -2.3022125024270753e-03 -1.3458252855067561e-02
      -2.5280369822269798e-02 9.0757611643527952e-03
      -2.3354098897745619e-03 3.1533554505228205e-02
      1.9780397838034636e-02 -1.6636621832912545e-02
      -8.2207221982479612e-03 1.3681414125734915e-02
      2.0138357400236853e-02 -4.2666713598861095e-02
      5.2378945800289012e-02 5.7274750116961494e-03
      5.0113868384312494e-03 -2.0080949380472616e-02
      8.5403543376475020e-03 5.7149900273351074e-02
      9.3087760085642166e-03 -2.5786446978625113e-02
      -1.3070241549918685e-02 -7.8576248352565346e-03
      -4.4633224716178393e-02 8.6254372921379160e-03
      -1.1176831570480722e-02 3.0251874339322433e-02
      1.9541631385107557e-02 -5.0170198793544349e-03
      -2.7085270640745387e-03 -1.5951282510668395e-03
      2.7092371910868210e-03 4.8268975894883697e-03
      -1.7835735454301658e-03 -4.2576167594339659e-03
      -3.8576038159258913e-03 -2.4154135836253190e-03
      -9.9561090515818983e-06 -2.6244306970144243e-04
      3.9025308236140506e-03 -3.8243786870367281e-03
      1.0494121807717082e-03 -5.2497520377089669e-03
      4.3291624075318200e-03 -2.9757150509420070e-03
      -6.2323722462406101e-04 3.7618478627859313e-03
      1.4177341115807159e-03 -5.6896524733517691e-04
      -1.3856674244910896e-03 -2.2237223029087480e-03
      -8.5101106803630222e-04 4.7642582347610441e-04
      -1.5431950020126457e-03 3.2856139256648730e-03
      -1.9855399183200334e-03 3.9498199704035616e-03
      1.2035902701247207e-04 3.1678447496070617e-03
      1.2768828744813853e-03 5.0436691665026558e-04
      4.2948931542618682e-03 -5.0577639064199043e-03
      3.8105761595272859e-03 4.5195581041920611e-03
      2.7657836750893906e-03 4.0064770556069553e-03
      3.8410899088515781e-04 2.6154745537306269e-03
      -4.4767112075770540e-03 -4.6795867541827907e-04
      2.5403688809831002e-03 5.8229597065724364e-04
      -3.9479991279997182e-03 -1.4599481718324593e-03
      -4.1898313959937036e-04 4.6629138780924801e-03
      3.6185118002647629e-03 -2.3112903135912143e-03
      -2.9903347579706262e-03 8.5205524990341426e-04
      -4.7668192407904564e-03 4.1796721900870624e-04
      3.4195193974167867e-03 2.7895446482616095e-03
      -4.4784033215348471e-03 -2.7158221440786623e-03
      2.8852618177794666e-03 -3.9921662288835676e-03
      1.7078306592521015e-03 -2.2373757708477000e-04
      -2.8726299306261823e-03 -1.7376585918834509e-03
      -3.0491484653407189e-03 -4.7522428583613614e-03
      4.6953175077280836e-03 3.6039347572563983e-03
      3.4779817582365142e-03 -7.3853075056015682e-04
      2.8114439550805262e-03 4.5903499696184338e-03
      2.1562700369378665e-03 -1.5772708889724399e-03
      3.0146651206870963e-03 3.0738325141887232e-03
      -3.6688610465784605e-03 -4.5207345265704246e-03
      3.3741578748814468e-03 -9.6684875683655943e-04
      2.6357474056165307e-03 4.6621113615263263e-03
      3.1803252828791696e-03 1.5714525309602509e-03
      -3.5615663317882808e-03 -4.0754428455221006e-03
      -5.9662697267559052e-04 -1.2847705388398345e-03
      -3.5229724442238288e-03 2.8734555590331054e-03
      -2.2287264340518612e-03 -3.0442233615887099e-03
      -4.8843562206988813e-03 2.1476504313745690e-03
      3.3043940284248063e-03 -3.3409299663747292e-03
      9.3173693881476059e-04 4.7975397300658263e-03
      -1.7257449288512729e-04 3.7907504887314483e-04
      2.2075391265014314e-03 4.1820574331919288e-03
      -2.8729693057520412e-04 5.1481596241530697e-03
      4.3235081859827927e-03 9.8372499566624585e-05
      -2.0072403930767599e-03 4.9237565356752624e-04
      -2.4705437156069478e-04 1.7350809657369563e-03
      -1.1328063345500165e-03 3.6724935048821484e-03
      2.2394677708246591e-03 -2.9538692126499949e-03
      1.4254093975224638e-03 2.4083752375737028e-03
      -4.5611118683876357e-03 -2.6274244223007505e-03
      1.3132593687694750e-04 2.7365036588779413e-03
      -3.6746934602543391e-03 -4.9053903558278385e-03
      3.8826665825072654e-03 1.3405729867461942e-03
      -4.1103381069752072e-03 3.6634314466809471e-04
      -7.1877347152981381e-04 -2.5376772528449966e-03
      -2.3848221665108411e-03 -2.7305907773185387e-03
      3.9047968764035434e-03 4.7360942514298428e-03
      1.2173556299868804e-03 -1.7176001784761684e-03
      -1.0063030095715244e-03 3.0445779630621055e-03
      -9.8763663994611548e-04 -4.6879721534279391e-03
      -2.8021001464209163e-03 -5.2654848625596773e-04
      4.6153065232574578e-03 3.5800372262801057e-04
      5.6115567979366150e-04 -1.2421361478479312e-03
      1.4334801535496676e-03 -2.4553873436675435e-03
      1.3354080897855112e-03 -4.5911457004870161e-03
      -7.7351294173195074e-04 -1.2014531341018425e-04
      1.3280376920636200e-03 -1.6501535094414744e-03
      -1.0860746959415694e-03 -8.6790258647352709e-05
      4.2563636282599951e-04 1.6912498168142490e-03
      2.5769454140518065e-03 1.7245472368152431e-03
      3.7972433539877693e-03 2.5333877227635073e-03
      -1.0737521685498172e-04 -1.3590141060583092e-03
      -1.9219916326408501e-03 4.8265153582863936e-03
      -4.7147669085393839e-03 -4.4496748278894140e-03
      3.8235207512976837e-03 -1.0005366947195081e-03
      6.1729700110774860e-04 4.9550421744450302e-03
      -3.8716042003635682e-04 -4.8791348758471164e-03
      -7.5099405757820484e-04 -2.8722620703964482e-03
      3.0947754225400265e-03 1.4177017050389081e-03
      -3.9916555531720795e-03 -2.6717661306202415e-03
      -3.6805896686595944e-03 -3.1984481520685357e-03
      2.5551625309655823e-01 -1.5631837557012215e-01
      -4.5547083242427171e-02 -1.1366088585738059e-01
      2.4819190733818681e-02 -6.2925428474873674e-02
      -1.2445111835281758e-01 -1.3076877798649417e-01
      7.1034258861405020e-02 9.2727519663900915e-02
      8.9272277929628788e-02 -4.8305678228813764e-02
      -1.0367816041943115e-01 1.4427694083338966e-01
      -1.4917200650393941e-01 3.1633706680248667e-02
      8.3183654607431282e-02 -8.7165485480970445e-02
      -9.4887734595085496e-02 -1.8339379746062468e-02
      6.6291186722969853e-02 -3.9361598041276799e-02
      -8.3200549888278463e-03 9.5598128323542378e-02
      -1.2655598231440518e-01 5.0703087054811004e-02
      -8.0919769421418944e-02 3.3861982312461658e-01
      -1.5391015334156527e-01 -3.5287526791001195e-02
      8.8163316562901398e-02 8.7772264213352255e-02
      2.1443120943845984e-01 -7.2356195140486204e-02
      9.0574671940749450e-03 1.0208291460187020e-01
      1.2314479609757643e-01 7.3457432650799528e-02
      9.4294258587791571e-02 -1.5095280830670438e-01
      -3.0689427947418740e-01 3.0259478386246458e-02
      4.1787885880486521e-02 5.6801809409423469e-02
      -1.6367219489626893e-02 3.4889978172577892e-02
      8.2547989781091083e-02 1.6851814046637228e-01
      2.4330431262161476e-02 -1.3432527590187524e-02
      -4.3161026676934396e-02 5.1944813514720356e-02
      1.0873811928576474e-01 6.4465726928892630e-02
      1.0048256087701887e-01 -4.0749438415509362e-02
      -4.4898433251056732e-02 -3.6723380967199029e-02
      9.7395906908936930e-02 3.3962271074952317e-02
      -3.9514805352120513e-01 6.3367359539211576e-02
      6.1584933902649075e-02 5.7529038809243073e-02
      1.2453440027462757e-02 3.6417160020632951e-02
      1.4266308393748819e-01 1.3348929253510500e-01
      5.2464917889881377e-02 -2.3728211893240151e-02
      -8.6292116527822635e-02 5.6387773000520967e-02
      7.2667982236106377e-02 1.0147058599992409e-01
      1.7655299366991870e-01 -5.3674969256026286e-02
      -6.6333423344134959e-02 -8.2197460708873057e-02
      1.0585205595752406e-01 5.7785190952925870e-02
      2.4070782317096462e-01 -1.6794249693512320e-01
      4.2037018725327939e-02 -7.2694063508913498e-02
      -4.4815858606367123e-02 3.9036545572763634e-02
      -1.5627153904561561e-01 1.0420621042850892e-01
      -1.9799170672141483e-02 7.0877536499370550e-02
      1.3332013435013190e-01 -7.0779960196987804e-02
      3.2352839593771068e-02 9.2211375319440157e-03
      -1.3417560025580155e-01 1.0335222361579706e-01
      1.5012655955371004e-01 4.3728700892057895e-02
      -8.1227284811722131e-02 -1.3105798768423246e-01
      1.4605125518103815e-01 -7.6682047567597597e-02
      3.9635013399095817e-03 2.1157204226202233e-02
      -4.1957278399883821e-02 9.7742325528882377e-03
      -7.2337257179226969e-02 1.2966612213373183e-01
      -6.9761358487675854e-02 8.1614789067966965e-03
      7.8155661700589255e-02 2.9418475569418633e-02
      7.8626989764026281e-02 -3.0896559817130863e-02
      -2.7238589568804091e-02 7.1282288935128002e-02
      9.9268555079569318e-02 3.0922713441581144e-02
      7.3653405664888122e-03 -1.2426956571358325e-01
      -4.8726816888764263e-01 2.4623920308937283e-01
      1.9975537529598841e-01 5.3245371551619992e-02
      4.0827021615631266e-02 1.8411904019493150e-01
      5.6549721772044939e-02 -4.8805863913770016e-02
      9.5808842766921651e-04 -2.9339911199863990e-02
      -9.6354083256135564e-02 -1.7690005653279919e-01
      -2.1885563021093297e-02 -1.8891944475248948e-01
      1.0052795430000193e-01 -6.2880488747322147e-02
      -2.0326768637337744e-01 1.2878579572930568e-01
      -1.0141361070269925e-01 9.7247567632512563e-02
      4.8721367612503438e-02 2.3638991522931269e-03
      1.2837314659982670e-02 -6.6451088355133400e-02
      6.7708947609593853e-02 2.6530094375142020e-03
      -6.1345338844909390e-03 -4.0681903968845155e-02
      1.0823638820757632e-02 7.2319404712384044e-02
      2.7015925831160640e-02 -3.4353392793791224e-02
      -2.8136272948381318e-02 -1.6760213971699551e-03
      -5.5267169991016753e-02 1.3434526269522138e-02
      -1.2534869410669407e-02 2.6659442982479489e-02
      2.3413709388763554e-02 -1.4498439299263029e-02
      -4.5309869633484913e-02 9.4518552498384228e-02
      9.9888024670964401e-02 -8.0843248970927442e-02
      8.6886936419645427e-02 8.3131590133042541e-02
      -7.8304509310217110e-02 -9.4819397776281414e-02
      1.0012308132145880e-02 9.1281363484050360e-02
      4.1102975258706473e-02 -1.3908599035388533e-01
      -5.4436918153420860e-02 -9.8188421505684811e-02
      -8.3546060031992039e-02 2.8676461897046701e-02
      -8.4469830602465198e-02 1.1116072002155029e-01
      -2.4474939383549416e-02 1.8154345037969279e-02
      -1.5748744390188427e-01 3.8216022610710776e-02
      7.1770562289473941e-02 -3.7970073862182173e-02
      6.1470741211033249e-02 6.4528285815632178e-02
      -6.1510986769233254e-03 -1.2157064442052147e-01
      6.4119001297453524e-03 4.4647609822337814e-02
      1.0373650812885769e-03 -1.4179333167335581e-01
      -4.9863978900069869e-02 -7.0457310286192093e-02
      1.0673985070989944e-02 8.4564739532641646e-03
      -4.4350895928402752e-02 8.7339360483081815e-02
      -2.6389129905372264e-02 -3.0761884539265601e-03
      -2.5165495765324248e-02 -2.6330591093336030e-02
      4.9236893277643308e-02 -1.0052199014955837e-01
      9.8331673069132167e-02 3.5580366316563521e-02
      -3.9203095578199718e-02 -1.4054076206267646e-01
      1.9903336829463776e-02 1.0400211470063611e-01
      5.8974413727462441e-02 -1.3198879762831928e-01
      -7.1614664405957332e-02 -2.9756003155250510e-02
      -8.4571539272836782e-02 2.4869340236857954e-02
      -6.4059446735136054e-03 7.8395540437676409e-02
      -1.9538057172845371e-02 -1.3989267862573927e-02
      -1.4946113448307125e-01 5.9511703066435856e-02
      6.2865176215456245e-02 -1.1889556188078357e-02
      4.8215723629131971e-02 4.8447735250061831e-02
      1.4743711881656083e-02 -7.6562511861639870e-02
      2.7925388326655400e-03 3.8199797548020484e-02
      -1.6535090553590898e-02 -8.8752948201764548e-02
      -2.6982851457767264e-02 -4.7272049967802349e-02
      -7.4612306944933063e-04 -8.1553023170592882e-03
      -4.7434469128442687e-02 5.7843335957123473e-02
      -6.6030704924459251e-03 9.4098316167285940e-03
      5.6954392919308747e-02 -1.9879213763259348e-02
      3.6618240234261024e-03 -5.4521343129748642e-02
      5.2997573293723205e-02 -4.3875583783070131e-03
      -7.7795956728470169e-04 -2.7536009434549879e-02
      9.9480390266880169e-03 7.0439241468370287e-02
      3.4707711574211278e-02 -2.0530034463253563e-02
      -1.7922603233691530e-02 1.2584453333036566e-02
      -6.7344169140524948e-02 1.6110576133624380e-02
      9.5955719171441235e-03 2.1731802953841521e-02
      2.7964315497011134e-02 -1.4076189516512851e-02
      6.3641189389613662e-02 -1.5782206238059208e-02
      7.8354648982006155e-04 -5.6876384113628567e-02
      5.7321689540785536e-02 -5.5739099141135003e-03
      -1.7620412730875044e-03 -2.5626604276422646e-02
      6.4565426744930049e-03 6.9111682103457153e-02
      2.5408711152320490e-02 -1.4997357188671193e-02
      -1.5603827410485277e-02 1.4899910738959158e-02
      -6.5917071343530670e-02 1.5661979149408752e-02
      1.0185310340994184e-02 1.1506139005228011e-02
      2.7960343441530991e-02 -2.2253928237717185e-02
      8.6337007724829654e-04 -4.2898206819459665e-03
      7.3518950339050877e-04 -1.2838461218039990e-04
      1.3393006083281128e-03 1.1715011923732657e-04
      7.1748272941018034e-04 -1.3863260938739958e-03
      1.9538422370858244e-03 4.6474788738305453e-03
      4.7967700291368974e-03 -2.1880839456307763e-03
      3.1714333273342010e-03 5.0434584593099909e-03
      2.1351598999057374e-03 4.0524503786291922e-03
      4.8917759096906164e-03 4.9283280066617198e-03
      -2.1142951212843974e-03 4.3570736116274236e-03
      -2.3608072498712464e-03 2.4695453234367844e-03
      3.4208306588790673e-03 -1.8542698508579858e-03
      -4.3148394522896875e-03 2.9932620996927250e-03
      -3.6903590263808215e-04 -1.8281225219502926e-03
      -1.4692844001559530e-03 -1.4163551156396554e-03
      3.0985193344187276e-03 -4.1336099050446138e-03
      1.6620703199818130e-03 3.4573592248218050e-03
      -4.0224378977948448e-03 -2.0035715406520617e-03
      3.6279562704887368e-03 2.9054960892665477e-03
      1.2194752776206290e-03 2.8322644378103172e-03
      -2.0493811367897599e-03 1.6244724865395828e-03
      -4.6009124167958196e-03 -3.2326377319801870e-03
      3.6750602252611989e-06 5.3866198553598665e-04
      -9.8504081839985175e-04 1.2131879708934010e-03
      -3.8713415961661294e-03 8.7322985624533190e-04
      3.3723310506677531e-04 -2.3081571206852490e-03
      -2.6922791212746306e-03 -1.1543583956026091e-03
      6.9942634077440669e-04 -2.1529199278593918e-03
      -3.6989720334544532e-03 2.3353635392338136e-04
      -4.6882534217046069e-03 -1.5356895604836033e-03
      6.6561149867120777e-05 -6.5319438070536367e-04
      -2.9682284596299857e-04 -1.4481651705408104e-03
      -1.0434325243324188e-03 -1.0984766532760267e-03
      -1.2309504819052054e-04 1.9140422201158283e-03
      -2.2908921551602398e-03 1.5629458587146997e-03
      -4.9454436319627750e-04 -4.5048118778981064e-04
      3.1476450837590987e-03 1.6412074332627345e-03
      8.3929427450151069e-04 4.7441254627053238e-03
      9.8626931534574812e-04 2.0707888568298784e-03
      -2.6046868315554774e-03 -1.5108576952537788e-03
      2.4974365281047045e-03 2.4129192720950135e-03
      4.6455908345181075e-04 -1.9069945706081800e-03
      2.1289504829891796e-03 -1.1280163949852361e-03
      -4.3398022018316417e-04 -2.0612665240370746e-03
      -2.4360691154457119e-03 -3.4662844958734221e-04
      2.8988966572932821e-03 1.6217452259027351e-03
      -3.2967661578358638e-03 -4.5866699535351500e-03
      -4.7021439674761155e-03 -1.0950696687455387e-03
      -3.5334679463080946e-03 -1.4596012079085142e-03
      3.9426402679771455e-03 3.5916614179695352e-03
      -3.7989884446518159e-03 -1.7501076488247273e-03
      3.6861437718943898e-03 3.6457192666170556e-03
      -4.5663547017317100e-03 3.7769956536946791e-03
      2.3429671514796609e-03 -3.9630001016514741e-03
      1.0547133342751977e-03 -1.7652978746577237e-03
      4.4747579936726123e-03 6.9202604842872933e-04
      7.4258424780785281e-04 -9.9103039151591968e-04
      -1.6185729289967133e-03 -3.5855755139659689e-03
      -2.7252403192560273e-03 4.6649751304273365e-03
      1.1617948855856266e-03 1.7204704458837353e-03
      7.2270696340213186e-02 -7.8399966999008600e-02
      2.6478538575784017e-02 2.9632271027812015e-02
      -6.9572747763607695e-02 3.3032080997257525e-02
      -1.0670163380721344e-01 1.6274912415311407e-01
      -7.9978123867758891e-02 -5.8189836535334823e-03
      1.0241590319136976e-01 9.9303335693452857e-03
      9.2845433929227325e-02 -5.5120186985424584e-02
      -4.4590938829773455e-02 8.7037530230783783e-02
      1.2899704758536162e-01 5.2062706081752209e-02
      -1.2199986178756986e-02 -1.3294950541841943e-01
      1.0280446070631242e+00 -4.3307203413170398e-01
      -5.0992687937892267e-01 -2.2302848716669282e-01
      5.9632207461839525e-02 -5.2234578682537969e-01
      4.5482058462768163e-02 -2.6755735170678685e-01
      2.6105180040888099e-01 7.6703370508371393e-02
      4.1852864081064277e-02 4.0309311737270337e-01
      -2.2941103289524759e-01 6.6324907152835644e-01
      -2.1775687598682109e-01 -2.7965897419774819e-02
      2.3180597911149436e-01 -5.7879373012027513e-01
      1.1652080659741876e-01 3.7607384281727933e-02
      -7.1275137296835622e-01 1.2734096012007398e-01
      -9.4366887737846447e-02 6.9748193800548211e-02
      -8.6767561362758577e-03 -6.5475891236562972e-02
      1.0087797449158051e-01 8.7794612222511087e-02
      -9.4351193066093728e-02 -3.3635672362462496e-02
      -6.9085247697043842e-02 1.6818905138163254e-02
      7.9815189488958688e-02 -4.3949010691803209e-02
      1.0835215643865165e-01 -4.5275595399273810e-02
      -1.0492027637706199e-01 -1.5914390420466398e-02
      1.7455877271502526e-01 4.6965771706423097e-02
      -5.9759899845751796e-01 1.0590063537357984e-01
      -7.7549694512417805e-02 5.9271969416407035e-02
      5.1781122621236105e-03 -3.8439334657518427e-02
      1.4153073500438423e-01 9.3951731138584127e-02
      -4.3753561197137428e-02 -2.3675255092968049e-02
      -8.4272547905836784e-02 5.5168897829906610e-02
      7.2161741322208151e-02 4.1880939269758152e-02
      1.2864583768315285e-01 -7.0800308171690321e-02
      -1.0023881934470030e-01 -5.7056173037801354e-02
      1.7837046489042030e-01 6.5166664522477977e-02
      -3.9572673515457113e-01 3.7178955645983322e-02
      -3.5917343991593423e-02 1.0532718216192136e-01
      -6.2922147394306294e-02 -1.2025147412293198e-02
      9.0129526294491058e-02 2.8747984863621062e-01
      -8.7474088978687387e-02 -5.6968685641563127e-02
      -2.9968628725720103e-02 1.5593224213980525e-01
      1.9121218944476093e-01 6.2034658884824331e-02
      1.2208428205561257e-01 -4.4520001664481775e-03
      -7.4428030310897094e-03 -5.3245958463749597e-02
      1.9278176290592539e-01 -6.4845434335123325e-03
      1.4898987606508976e-01 -9.9372089424000096e-02
      7.2899385640047762e-02 1.8858800354147026e-01
      -3.2190079620000445e-01 1.4626520356815675e-01
      -2.8312627702128507e-01 7.9333342766452475e-01
      -4.0739904572077507e-01 -3.9572474298170242e-02
      2.8472117777788675e-01 9.9454112930760299e-02
      5.1900948660343127e-01 -2.6583384373035640e-01
      -4.0097972615804965e-02 2.8369133916759026e-01
      2.8831669823578226e-01 2.6436774484367476e-01
      1.1922219932663877e-01 -3.9668178785301189e-01
      1.0539697898276501e-01 -1.3906771621152084e-01
      2.4025397115911177e-02 1.5618492074360590e-02
      -9.5711010826337650e-02 4.4480799268503284e-02
      -1.9270565633752604e-01 3.3248522841181177e-01
      -1.7925683031413384e-01 7.0223822507438527e-02
      1.8865736523611193e-01 -1.6659958912777693e-02
      2.0028231692652748e-01 -1.1433623638721679e-01
      -8.1628628208439150e-02 1.6948811593866350e-01
      2.0589280498216384e-01 1.4079288153973127e-01
      3.7092523858566463e-02 -2.4249101020980143e-01
      1.5133595573522454e-01 -8.6176953652292151e-02
      -8.9910654089932261e-04 2.9051903117766682e-02
      -4.8883192654046385e-02 8.8865689764151964e-04
      -6.5407925687262503e-02 1.3124032534088895e-01
      -7.4268335547706441e-02 9.2946522104171425e-03
      7.9488942436300350e-02 3.2509775899000906e-02
      8.4898014717312703e-02 -3.1394980739683137e-02
      -3.1270748053779732e-02 7.0313662424415432e-02
      1.0634779607051277e-01 2.7069347350424173e-02
      7.7706129807635872e-03 -1.1915383080745819e-01
      2.0556269761443091e-01 -4.1603547593739840e-02
      1.2448891632940905e-02 -7.5960814570715227e-02
      4.5288056359529982e-02 2.9045857472027596e-03
      -6.0756247122373340e-02 1.0980000937099099e-03
      -4.1590293902314486e-03 9.5593705524335479e-02
      8.2766886180604002e-02 -1.7526596117802353e-02
      -1.7005610676537790e-03 4.5073613967638766e-03
      -1.2625750608582542e-01 5.6963043817898087e-02
      3.1787006185022559e-02 2.8107394528173551e-02
      1.7358125328812712e-02 -5.5148503646107919e-02
      -2.8123831958651030e-01 1.9553766630263764e-01
      1.7265812147253179e-01 -6.7246308036907509e-02
      1.1886376424554454e-01 1.4795966292323512e-01
      -2.0994850449846541e-02 -1.6031009165559404e-01
      2.6401850694458009e-02 7.5314598716115164e-02
      -2.9061452041993223e-02 -2.2146371631774026e-01
      -8.5338071533232931e-02 -1.4829358160749032e-01
      -2.5594391131240485e-02 -1.4758089107817450e-02
      -1.8202118525116856e-01 1.4990956840241576e-01
      -6.7009895339639552e-02 7.6157500865963970e-02
      -3.0262073245943943e-01 1.6113230366939338e-01
      1.4154668875157872e-01 -2.0765848338161780e-02
      8.0619858845527123e-02 1.3237094847503927e-01
      -4.3816442681566273e-04 -1.1860004071322224e-01
      -2.1292804456012563e-03 4.6028747589646410e-02
      -3.3605153498420692e-02 -1.7966880881706906e-01
      -5.7683364389684674e-02 -1.3929929942422511e-01
      2.4348810435962941e-02 -1.6520430202640546e-02
      -1.3832646281147540e-01 1.2910723739444507e-01
      -4.8471692551901965e-02 4.6066570106038811e-02
      -1.6752431217249331e-01 4.5148454830005638e-02
      5.1864704386466509e-02 1.5742490123505693e-02
      4.0980200840001209e-02 2.7282223960230292e-02
      7.9498425223890348e-02 -8.2123147855300602e-02
      3.1342612191229441e-02 -1.5835897331575267e-03
      -4.9656130109543166e-02 -6.1406830558263681e-02
      -2.4886353096567532e-02 4.8337862117993364e-03
      9.9727935016794431e-02 -3.1165007007055823e-02
      -4.5497222820259468e-02 1.4347906231247688e-03
      1.4091111761733282e-02 3.0586501816542610e-02
      -1.3321724227572007e-01 3.2901202324974232e-02
      4.1663298592155264e-02 -4.6161529196609714e-02
      7.5243147334380450e-02 2.5538519760102980e-02
      6.0031355235946734e-03 -8.6416075763353403e-02
      5.5720637643631296e-03 5.9509282057417623e-02
      2.0640546054938340e-03 -9.2530142888887723e-02
      -4.0619553470578343e-02 -5.3950133912553509e-02
      -1.2918841502150523e-02 -3.2421559140269363e-05
      -4.4105767062292689e-02 6.6745524740425610e-02
      2.2843604518325666e-03 4.1544696199746498e-03
      7.4029680326441458e-02 -3.7239437004327740e-02
      -3.2678395211347007e-03 -1.0768357812796767e-01
      9.9328748677978307e-02 -9.7511079256926824e-03
      -4.6902458577422659e-02 -8.6715567043158442e-02
      1.6154960979442742e-02 1.1913048411562309e-01
      7.6008731855670739e-02 -8.1731767483760764e-02
      -4.7283050562713924e-02 -1.7492160147947879e-02
      -1.0935621319914249e-01 3.2456892394458876e-02
      5.6138116503043510e-03 6.4422142891068998e-02
      3.0286704310667396e-02 -4.1880206836677571e-02
      -9.0078439892983017e-02 3.9141001334237535e-02
      6.8190485599560285e-02 -5.9306514593615009e-02
      6.9629477888362545e-02 5.0684479427327241e-02
      -2.8781484704058034e-02 -1.1820851437152280e-01
      1.6154933686145342e-02 7.3103781453563332e-02
      2.3289210457176853e-02 -1.2825069260902236e-01
      -5.4735752937755247e-02 -5.9679354500151667e-02
      -4.2466218735643955e-02 1.5470907756333311e-02
      -4.6602767677048712e-02 7.7832375001208529e-02
      -2.0885039031270685e-02 1.5949725470449521e-03
      -4.3667529748097678e-01 1.8412493239607111e-01
      1.4649371300007930e-01 4.6836643231656490e-02
      2.8383360147629735e-02 1.3017359829449582e-01
      5.2647344363576175e-02 -9.2975681050373710e-02
      3.7197911449822693e-03 -3.4102155470216361e-02
      -8.5168154704781437e-02 -1.5627851284047303e-01
      -4.0208540003681695e-02 -1.3301949385547676e-01
      1.1174312697099542e-01 -5.2585585042914072e-02
      -1.4775315804610059e-01 1.0364596245638898e-01
      -5.5320363014696311e-02 6.8154220665286577e-02
      -3.8437868372995215e-01 1.6732777309051397e-01
      1.4471892805816608e-01 2.4321930664523733e-02
      4.2723114188637140e-02 1.2766222095753893e-01
      3.4663535816576364e-02 -1.0352120857197439e-01
      6.9634536555218960e-03 -1.4412301421615906e-02
      -6.9854168805379660e-02 -1.5007291402693193e-01
      -4.3857155569961982e-02 -1.2147528528943075e-01
      8.5287650490166220e-02 -4.0311602924973648e-02
      -1.2849068369261094e-01 9.7202657884630020e-02
      -5.2194276051694050e-02 6.2433539921884516e-02
      -4.3513853415613529e-01 1.8226482303113112e-01
      1.4459148481165879e-01 4.5910924619936518e-02
      3.5047378340694088e-02 1.3212859358771206e-01
      5.3018373770543463e-02 -9.7049161562772157e-02
      7.9194565753402130e-03 -2.5713562420172767e-02
      -8.7579469464566087e-02 -1.5249136317409651e-01
      -3.7841997540719464e-02 -1.3183999148022008e-01
      1.1086421419415610e-01 -4.5481686334258559e-02
      -1.4306706640064060e-01 9.9332620108484995e-02
      -5.7165054045331634e-02 7.3372919155105826e-02
      -3.6962539022917296e-01 1.6454321369516878e-01
      1.5024809072571702e-01 -4.0716254141073387e-05
      5.6945337145031950e-02 1.3499731606158061e-01
      2.7000461866194935e-02 -1.0404081219791834e-01
      1.3225306231144693e-02 -2.4697084889538839e-04
      -6.2021529110525081e-02 -1.6605883996264059e-01
      -4.8447141893203628e-02 -1.3681828955936168e-01
      5.8928106079754100e-02 -3.5617381324108729e-02
      -1.3381224124776997e-01 1.1473450609885077e-01
      -6.0962444827478798e-02 7.3211764301757437e-02
      -4.3612038991484842e-01 1.9157281457016617e-01
      1.6272242596862380e-01 2.2845539182030198e-02
      5.1257431530511585e-02 1.4710482723142831e-01
      4.3299896115814966e-02 -1.0426708758897221e-01
      1.0114074312172176e-02 -1.3267947149573335e-02
      -7.8197679851610483e-02 -1.7204860053602267e-01
      -4.7806125593374015e-02 -1.4137847475311155e-01
      8.2271351701654422e-02 -4.7325446891692928e-02
      -1.4648772008126229e-01 1.2259032264744184e-01
      -7.0231937087691126e-02 7.5702127022672580e-02
      -2.4384691136482776e-02 -4.6332169674894947e-03
      3.4651519093659010e-02 8.9011582224931038e-02
      -8.1774171907529780e-02 3.5801047033195581e-02
      8.9907683705715002e-03 1.9341019679136981e-01
      -8.0859612148419899e-02 -6.2294122003145318e-02
      1.5406880785016527e-02 5.2887389121843660e-02
      1.2234979055016415e-01 -2.6325424090890850e-02
      6.4095908027755791e-02 4.0670024740457465e-02
      6.8091068923794990e-02 5.0979551559515843e-04
      2.0929447748299346e-02 -8.7307027788311592e-02
      -7.5025436492226549e-01 6.3614769604876886e-02
      -6.9415805802983566e-02 4.9617913868777883e-02
      -2.3811635920690001e-02 -7.0712571636367391e-02
      9.8350792105298498e-02 7.1958263183743362e-02
      -6.5100433155433832e-02 1.0287102781612281e-01
      -6.1392719464603958e-02 5.0641992021115953e-02
      5.6471006272610577e-02 1.8396452912082899e-02
      6.6258742784299843e-02 -5.3366774385214324e-02
      -6.1090925939565964e-02 -4.8329542967142168e-02
      1.0223124474257501e-01 4.3199853460636616e-02
      -4.5840607089849622e-01 -3.6349260105101484e-02
      -8.8472248610602044e-02 4.9392312325729506e-04
      -1.9960951139240991e-02 -9.0179420867673485e-02
      3.0755032739630529e-02 1.7083974837311226e-02
      -1.7045078774405396e-02 1.1397007366214276e-01
      -1.1486384007045243e-02 3.1504957102010303e-02
      1.0421498466856135e-02 1.1455399092116164e-01
      -2.1757653925847894e-04 -2.9630660773102731e-02
      -2.6227335756716223e-03 -1.0622342754247011e-01
      3.3276884027596099e-02 1.8175581143254550e-02
      -7.5856204572618868e-01 8.2394260781317175e-02
      -6.4419776195374992e-02 1.1162179266839217e-01
      -9.2050817609233795e-02 -5.4953385240136918e-02
      5.1470809680153225e-02 1.9159549932190900e-01
      -1.4658900210009909e-01 -1.1358980912136683e-02
      -2.3137811380794730e-02 2.8019648061667596e-02
      1.4241031344985033e-01 -6.1224146520188212e-02
      1.0374241559048698e-01 5.6704390427696301e-03
      -1.9348827676010399e-02 -2.3710146102472841e-02
      1.1941274745067651e-01 -3.4725477990515688e-02
      -1.4908690054398466e-01 -4.7798888266891937e-02
      2.7234816353150625e-02 5.8820256979882753e-02
      -7.8906327101977189e-02 6.6721193872662482e-02
      -9.3319467635504971e-02 2.0756535214335631e-01
      -1.1691510668880051e-01 -1.7567292644890528e-02
      8.0651696507184248e-02 2.1756439439295408e-02
      1.3065624410446791e-01 -5.3788099173835438e-02
      -2.5720769990282586e-02 7.4246104014505140e-02
      9.1994765637988044e-02 5.1829404258517293e-02
      1.7614537018415817e-02 -1.1886719953652018e-01
      -4.5813346527004369e-02 -6.0360078467476076e-02
      4.1503917796139066e-02 7.8282433628034997e-02
      -1.4099310715023838e-01 7.1365959896239062e-02
      -1.0653422156210592e-01 3.0862430246046180e-01
      -1.1619111882755209e-01 -2.8110764096453897e-02
      9.7260366988942693e-02 6.6611046947557373e-02
      1.9790287316823812e-01 -3.9033536512887178e-02
      -4.2680351433742894e-02 8.3934182425142723e-02
      9.1739168978446556e-02 6.9131078320607567e-02
      5.4648008105636373e-02 -1.1435076045397420e-01
      -7.9213054608068489e-01 1.7436728474613394e-01
      -7.7446196005285378e-03 1.0431236516465672e-01
      -1.6829896798084637e-02 3.0382596301982808e-02
      1.4110952008652111e-01 1.2509733271434356e-01
      -9.6194142835269128e-02 -5.5682668827108303e-02
      -1.0132382489550812e-01 3.5074406067095852e-02
      1.0123870383027231e-01 2.8041423060375673e-02
      1.6109633834166484e-01 -6.2450386994066749e-02
      -1.3698330239483383e-01 -3.8612242045540764e-02
      1.7327709395511143e-01 6.7091220285080536e-02
      -4.1668167232373010e-01 -2.9747812009770810e-03
      -2.1012836778803314e-02 6.8584457376733706e-03
      -9.4152512937050879e-04 2.4227482948407232e-03
      4.6485555112923266e-02 1.4371644288134999e-01
      -2.3349466619830686e-02 1.0098678162828416e-02
      -6.1504282516452093e-03 -1.8308063734171205e-03
      7.5533332499588421e-02 6.5314574436113493e-02
      5.1237878357481212e-02 -1.5222195540021893e-02
      -2.1054159691647645e-02 -3.2932633298811548e-02
      9.3990325761041743e-02 9.1279154985863531e-03
      3.3836666068342275e-01 -1.6510560202716734e-01
      2.5080360533772418e-03 1.7343787287637941e-01
      -3.0311035971199735e-01 5.5625915896755057e-02
      -2.9238589908319829e-01 8.4465529002353279e-01
      -4.1143949028412052e-01 1.8699327170514344e-02
      3.2160888790094988e-01 1.4360162170817109e-01
      5.5737701814470264e-01 -2.9858668903742630e-01
      -3.4164391761428957e-02 3.1447168173127615e-01
      3.5199099333306039e-01 2.9406193689125232e-01
      2.1935639411701943e-01 -4.5679972291280496e-01
      8.6024747146254049e-02 -8.0540371224605875e-02
      1.3746258776476632e-02 2.5548863362331184e-02
      -3.0337379674944435e-02 1.4343999912554216e-02
      -4.9003036091931684e-02 1.4076880963365210e-01
      -4.7133322206365805e-02 8.5143871543599085e-03
      6.8492257349771213e-02 2.8333780904276015e-02
      7.7942969913504176e-02 -7.6925332976138855e-03
      -1.4263747971523978e-02 6.0700192855827041e-02
      8.4944619592331599e-02 2.1446073788026505e-02
      1.6498455528655396e-02 -9.7109912711385735e-02
      -5.0722583564750859e-02 3.1454364647953460e-02
      -1.1527398787872067e-02 3.1040051477532065e-02
      1.8087298986974653e-02 -2.5216318886904749e-02
      1.0824903887144897e-01 1.7777593940501824e-02
      4.5151991940595881e-02 -1.9406782660170010e-02
      -6.5788846439173376e-02 5.2050857587487946e-02
      1.0595106157479691e-02 7.8336290202128400e-02
      1.0410029196918073e-01 -5.2135274677499878e-02
      -3.6978587280343179e-02 -7.5182412300429768e-02
      5.9310986928810649e-02 5.0138131097910071e-02
      -6.3299721571685827e-02 4.7699907121611221e-02
      4.2881096438957114e-02 -3.6234157760343152e-02
      6.4241173960193271e-02 3.4973005417452775e-02
      -3.7755183794325513e-02 -8.7594028437838353e-02
      -3.0496532784079966e-03 3.9882832025375965e-02
      3.7085576909825307e-03 -9.1055304208296869e-02
      -3.7315852645717226e-02 -4.0436914271910915e-02
      -2.4381764692851457e-02 5.4795238245168793e-03
      -3.8038606548871659e-02 6.2153232370328382e-02
      -7.8200450036050220e-03 5.5373284320125726e-03
      -1.5065741408062588e-01 1.2179561977955848e-01
      1.0532268025493501e-01 -4.0072052653045025e-02
      7.5753202242218820e-02 9.4521887724280870e-02
      -5.3027650534554313e-02 -8.6850315859020824e-02
      -4.1410492949400472e-03 6.2528564196934686e-02
      2.2716631386211330e-03 -1.3605498729790577e-01
      -3.8513668310469935e-02 -1.1529442121373515e-01
      -3.2944860656805755e-02 1.0287975284184207e-02
      -9.7796653488760071e-02 1.1102933602583814e-01
      -2.0977455657128514e-02 2.1099881599206432e-02
      -7.3265534428693366e-02 5.5810430153396741e-02
      7.2955290066918380e-02 -2.6061541120301780e-02
      4.4746155018685715e-02 5.1842037010051654e-02
      -1.2499347157513897e-02 -8.4528587368135136e-02
      1.5209428571089523e-04 4.7703882941447291e-02
      1.1329189995305751e-02 -1.0551998867390042e-01
      -2.5136482970056887e-02 -4.9779930278011558e-02
      1.1246915185775343e-02 1.4086045650358099e-02
      -4.2263065516081083e-02 6.3366664466959335e-02
      9.4518563165400631e-04 -2.0985281640891417e-03
      -3.8180644064742791e-01 1.8409528284845791e-01
      1.4818475784409904e-01 3.1589754953607850e-02
      4.8256417380513825e-02 1.3223392098487272e-01
      3.6009862599654115e-02 -1.0458452729465306e-01
      -1.3974041842340815e-02 -4.4640242809972650e-03
      -5.9739603536870370e-02 -1.6728340881409223e-01
      -3.6571299616376951e-02 -1.5677467733583947e-01
      8.3973621254241515e-02 -3.5772355283835010e-02
      -1.4891517850048772e-01 1.2208891302948457e-01
      -4.8312876538175557e-02 5.5594745824159998e-02
      -5.1421118942853850e-01 2.3631196079044864e-01
      1.9352163891825019e-01 4.8111522056019616e-02
      3.7731854745160172e-02 1.7664503096747092e-01
      4.5606872562492483e-02 -1.1262358933336861e-01
      1.5747180123415531e-02 -3.5660955317629882e-02
      -1.0845762078341008e-01 -1.9164266524271817e-01
      -5.7832266966388789e-02 -1.7099045801481999e-01
      1.2478261275825855e-01 -6.2299422916007569e-02
      -1.9569133205992739e-01 1.2719923983520917e-01
      -9.7840890932643781e-02 1.0155132069431135e-01
      2.4088121250694410e-02 -8.8999508058913747e-03
      2.4701718986935389e-02 -8.8966704011098366e-02
      9.5567081751668018e-02 1.1823157612047254e-02
      -2.3663431065044122e-02 -8.3645844784321535e-02
      1.1080270328265640e-02 1.0618694267611443e-01
      5.1931150548709851e-02 -7.7578151255647834e-02
      -4.8931842351313336e-02 -1.1769289922682885e-02
      -8.6678063110710218e-02 2.4271376868971239e-02
      -1.5472740345997958e-02 5.1036571550432168e-02
      1.6228275975426219e-02 -2.3120841261015362e-02
      -9.0926589023754545e-01 3.7716810391605532e-01
      3.0324453870986717e-01 2.6943528450175044e-02
      1.4690704019081749e-01 2.7189467331565331e-01
      9.6247095207482813e-02 -2.0650157986498649e-01
      1.3337113787383411e-02 1.0279832983175828e-02
      -1.4872988684799840e-01 -3.5205795773149462e-01
      -9.7540374720036835e-02 -3.2199484790715427e-01
      1.2709367086521428e-01 -1.2444478036507173e-01
      -3.4107075819136845e-01 2.7797062978643872e-01
      -1.2989420759665493e-01 1.8053887730225449e-01
      -1.1330489410448419e+00 4.9604054737243691e-01
      3.7916063161454222e-01 6.1748739050033717e-02
      1.4037537831098706e-01 3.4775271346814279e-01
      1.1625993688175695e-01 -2.2311529630612589e-01
      1.2574027998091793e-02 -2.8806002478411075e-02
      -2.0274870452620791e-01 -4.2260500647837335e-01
      -1.0176403763071359e-01 -4.1162750792624553e-01
      1.7095410235356803e-01 -1.5861576326438051e-01
      -4.4134916922464401e-01 3.3364402871012894e-01
      -1.7709109870937931e-01 2.3924084321295364e-01
      -1.5979118487982225e-01 8.4875928517353753e-03
      2.7411353312039838e-02 -2.1067180762954565e-02
      5.3580635451705903e-02 1.7567777999032714e-02
      3.4610594012035124e-02 -6.5370871073150399e-02
      9.5824542233707681e-04 2.3027292994380093e-02
      -1.4428586250358888e-02 -6.7851305391598948e-02
      -2.9549932726054721e-02 -7.6774947892301612e-03
      3.6175615355631963e-02 -1.7848376472945963e-02
      -1.8332952703675957e-02 3.3885896069656592e-02
      -2.7771837356232207e-03 8.7316624894404789e-03
      -1.6209679983382815e-03 -3.8213992588832612e-03
      2.8598134351595613e-03 -4.3581766947858218e-03
      4.3206886578461461e-03 4.8848425432768683e-03
      -3.6848161094196821e-03 2.5314877329690672e-03
      -1.8621079629142034e-03 4.2229960230653471e-03
      -3.5240948652400274e-03 -2.3955551680136596e-03
      4.9756035053338020e-03 -5.0529911558915681e-04
      -2.9534714249245006e-03 -1.4349888071482969e-03
      -3.4355325946739861e-03 -1.9223556074418832e-03
      -6.3680353752870766e-04 -3.3298811991762716e-03
      3.6914957504552404e-03 -8.1880259931210221e-04
      4.2545175965133467e-03 -1.2550939575398650e-03
      -5.1474475112162138e-03 -9.8220676452264160e-04
      -2.8154124954709427e-03 -1.4861306735779029e-04
      -3.0178684105071642e-03 -2.9118307166844737e-03
      -3.4519707964131767e-03 9.5432670496292465e-04
      -1.0650785783321833e-03 4.0462098058485826e-03
      -3.2406621845936885e-03 1.7934118430303258e-03
      4.6219722839348342e-03 -4.2015628897285353e-05
      -8.7570101089814230e-05 5.5651628825265499e-04
      -7.7052912074862756e-01 6.9934782102471574e-02
      -7.7558968795145497e-02 5.0739953181240992e-02
      -2.4831778778326173e-02 -7.9054242915832712e-02
      1.0159917559773766e-01 6.5614055329928284e-02
      -5.9804747172585486e-02 1.0856678965415983e-01
      -7.3795797677800118e-02 4.9215490364512761e-02
      5.3192893200103425e-02 2.2454329294649113e-02
      7.3601004206099191e-02 -6.2804357691879170e-02
      -7.4424163095626050e-02 -5.1342656045964281e-02
      1.0649123962818940e-01 5.5101541522494121e-02
      -7.7286524512785526e-01 7.5239820909276042e-02
      -7.8102117570220272e-02 5.2935091157631779e-02
      -2.5843480614482467e-02 -8.0055273528232246e-02
      1.0706464725448590e-01 6.7311079232119292e-02
      -5.9545528047314576e-02 1.0737771528216625e-01
      -6.6634109048708506e-02 4.6984227399074464e-02
      5.1557900748511784e-02 2.1581762933818572e-02
      7.6081823817922306e-02 -6.3112714791874233e-02
      -6.9506035539433714e-02 -5.0654431948897537e-02
      1.0780203876278703e-01 5.9011964618056051e-02
      1.0164832779907167e-01 -1.1298171954197890e-01
      -2.7147180003084259e-01 -1.6937483536103116e-02
      -7.3275763382164173e-03 -2.8781950219721991e-01
      1.5902949477667400e-01 -3.3164085446544804e-02
      6.1249524863694331e-02 -2.9855155652251213e-02
      -5.8840958425558976e-02 2.4716925617805313e-01
      -2.5157001619077184e-02 2.7979092974740533e-01
      4.3350502695568130e-02 -5.6150965852382127e-02
      5.3344759186614910e-02 -3.1295085354240043e-01
      1.8009425809294174e-01 4.9110983733898619e-02
      -7.4146333070225556e-01 9.7730019614971214e-02
      -8.1722325077808688e-02 5.8887419022235661e-02
      -1.8950639879371935e-02 -5.6150476117573060e-02
      9.1046466653411179e-02 5.6599149342353591e-02
      -5.6049528002003475e-02 1.1483201886667719e-02
      -6.7678038799297513e-02 3.1855254505529534e-02
      5.2027996176557581e-02 7.0557272798244738e-02
      8.7348953824359629e-02 -5.3923584330107271e-02
      -9.5705070505555559e-02 -9.8451726956331143e-02
      1.1532568122560970e-01 6.4143153653864249e-02
      -7.5044310092509148e-01 4.7822999144291681e-02
      -7.8907403647034149e-02 1.8052626593331990e-02
      2.8743002273641502e-02 -9.9865843452415101e-02
      1.5784366698116331e-01 -5.5240777098749198e-03
      6.6179902776078547e-02 4.6585297934091011e-02
      -1.0971947302482231e-01 7.1435169476032540e-02
      -2.7743590847668026e-03 1.6669284821559671e-01
      6.8428141055534256e-02 -1.2038946015574571e-01
      -1.2688176666843476e-01 -1.4597804064813910e-01
      1.2046274285835269e-01 1.4784549748857892e-01
      -3.0292872211906641e-01 -5.4639063390465634e-02
      2.1820659042762112e-02 7.4466533095349063e-02
      -1.0122445128504221e-01 2.8872900943858661e-02
      -8.9243293371033927e-02 2.0504590788593621e-01
      -1.3445209354561719e-01 5.4649768764022687e-02
      8.7680546582924013e-02 2.2366110868990395e-02
      1.3276282385273566e-01 -7.1736253455319213e-02
      -2.6530518933321687e-02 7.6622659460215486e-02
      1.0729560065594566e-01 5.6800103777110998e-02
      1.3653320024902540e-02 -1.3086458240684104e-01
      6.0134975163506445e-02 -1.3166159423166585e-01
      1.5692463990159358e-03 3.6654975251326175e-02
      -1.6808635873611361e-01 5.3237163500708715e-02
      -2.1517970439833284e-01 3.3160158911907128e-01
      -2.0495737530045724e-01 2.4742137793904332e-02
      1.9180501954826013e-01 9.6552499936695502e-04
      1.9262108685006635e-01 -8.2062768327562152e-02
      -1.3896052526998642e-01 1.6873439456970526e-01
      1.9037318769650011e-01 1.2395741780940660e-01
      -1.2740090039532477e-02 -2.1912231036714611e-01
      1.1850650340764185e-01 -8.1801747823204596e-02
      2.9236058433300596e-02 1.8385821436137326e-01
      -2.7103730010648003e-01 9.1439805064274751e-02
      -2.5548668053396212e-01 7.0882594054028736e-01
      -3.9527028555435229e-01 -2.8969746484877133e-02
      2.5049496064021171e-01 1.0686071922956356e-01
      4.7039319653196815e-01 -3.0148142541155620e-01
      -1.4880464424196344e-02 2.6079169834032540e-01
      2.7143086870089661e-01 2.5128662129883467e-01
      1.3101688863209685e-01 -3.8038964657614899e-01
      1.8424322268669335e-01 -1.5028647895836722e-01
      3.2794909005968827e-02 1.1757706076735730e-01
      -2.0066551948691422e-01 6.9331294015846590e-02
      -2.3650048402384741e-01 5.8912434423294424e-01
      -2.6943170241732556e-01 1.3997371471252332e-02
      2.4181145517611541e-01 7.9925436459280283e-02
      3.7057522432546181e-01 -2.1432384219129111e-01
      -5.7603918365537785e-02 2.2778380268065376e-01
      2.5806713652473873e-01 2.0797561302184134e-01
      1.0612007990856645e-01 -3.3877992456974387e-01
      -2.2797543560821121e-01 -5.4988373983308469e-03
      -4.9284934160053522e-02 1.4789142940084508e-02
      -1.6074518170288175e-02 -5.4523631799400056e-02
      1.5236281686665626e-02 6.8469080651527681e-02
      -7.0569816138945474e-02 2.3744255509645044e-02
      1.9486261998632591e-02 -8.4578835030720521e-03
      5.5192849906676618e-02 -4.5052418820799772e-02
      2.7691778356265705e-02 2.0546310560780889e-02
      1.3075103874172812e-02 1.5243757762209974e-02
      9.3319737850650689e-02 -4.7601221902931111e-02
      -2.6256378454733448e-01 3.2562079068556175e-02
      -4.9672815753642977e-02 3.2376372765784547e-02
      -1.6661061977650039e-02 -4.6059810444280459e-02
      4.5860894017119992e-02 5.1661594397534344e-02
      -5.1610629219040173e-02 -4.3258873412642840e-04
      -2.0253362138898345e-02 1.9340982511062562e-03
      3.9035710344591495e-02 -4.7423970430521066e-02
      5.0605463529463372e-02 -2.8185727294265548e-03
      -2.1971385835003070e-02 3.4876189806130006e-03
      9.5240310475541115e-02 -2.3211892072901373e-03
      -2.9029677037639334e-01 3.9815333048156827e-02
      -5.2505164342336832e-02 5.9708440374489656e-02
      2.0357711320606011e-02 -5.7377892835338833e-02
      1.1654156483361416e-01 7.7320429898429577e-02
      -1.7131803753416587e-02 -3.6447979367811120e-02
      -6.4001168224843433e-02 5.5162956030978191e-02
      4.4375758535521198e-02 1.3401748532488700e-02
      1.6907516119473948e-01 -1.5354652316977154e-02
      -1.4249906942556165e-02 -4.9001297981937073e-02
      1.2574690050011994e-01 1.0959867129537003e-02
      -2.9823569459313232e-01 7.4298144071993893e-02
      4.4890582384181886e-02 7.1274541653629057e-03
      3.9849312950900537e-02 3.0724809858139371e-02
      2.6845941027358617e-02 -8.5173557294518212e-02
      -2.6008996736433518e-02 -3.3172445900075194e-03
      -4.4511042444555900e-02 -1.0714067556780722e-01
      -1.7535056692133195e-02 -6.8894694175591603e-02
      6.9407400870365121e-02 -1.9664311492217236e-02
      -6.0395994054549776e-02 6.3721131020226571e-02
      1.2156572278091225e-02 1.9949752027070042e-02
      -6.3339198669506228e-02 4.5903416638510414e-02
      5.5595592745222883e-02 -3.7818192273481814e-02
      5.8794477041619546e-02 4.8554345805599065e-02
      -3.3942212282954701e-02 -7.8677450215499531e-02
      7.3134606434801450e-03 4.0400212263020541e-02
      6.5156128645453629e-03 -9.0780373082415849e-02
      -3.4429348976275184e-02 -4.1950125854778447e-02
      -1.8625103330215269e-02 1.2732806110259520e-02
      -4.4352148112725524e-02 6.1242400629639274e-02
      -1.0157731798552193e-02 1.3049461648142979e-02
      -5.1022311037924430e-03 1.9024044795353641e-02
      6.0605278503216821e-02 -7.7627300667971008e-02
      7.4369533458936071e-02 4.4633829125634510e-02
      -5.8086998714208915e-02 -1.1652995903747235e-01
      2.4138677508171624e-02 7.6903523387458053e-02
      2.9161552941352292e-02 -1.1688616725751362e-01
      -5.7793312555403251e-02 -2.9628766348398387e-02
      -6.5667179328161407e-02 2.1941371729503053e-02
      -3.2769948014936059e-02 6.3695875992693066e-02
      -2.8919913545347214e-02 2.6936514806038614e-03
      -2.2077176526357700e+00 1.0089161293048592e+00
      7.7184618288292661e-01 7.9424682341828284e-02
      3.0107109946942123e-01 7.1616953416410423e-01
      1.5325546965220968e-01 -4.3706830158370769e-01
      -6.2562184048174834e-03 -2.7958918288910920e-03
      -3.7091203237771769e-01 -9.0050662026831740e-01
      -2.0230468367774626e-01 -8.5786715828629290e-01
      2.4303988319422734e-01 -2.8995736615416168e-01
      -9.1039401271540810e-01 7.2056978036973696e-01
      -3.4796273300626424e-01 4.8798485416748227e-01
      -4.1771147014873400e-01 2.7374187443847892e-01
      2.0061554560097022e-01 -1.4517305574383991e-03
      9.3607409418811044e-02 1.7250398185434279e-01
      1.3257391204378445e-02 -1.1470347253333169e-01
      3.4137580942271019e-02 3.7275090092608917e-02
      -8.3571821846619571e-02 -1.9809198468225722e-01
      -6.0940956157182619e-02 -1.6913748452562419e-01
      2.1247305013978365e-02 -5.1479313020401048e-02
      -2.3743090120694091e-01 1.2828815217228770e-01
      -7.1099287523020485e-02 1.2543614425643426e-01
      -4.6044268982892828e-01 2.9030918943892975e-01
      2.1531301143571774e-01 -5.3339036910686217e-03
      1.0605655473929661e-01 1.8902971306968402e-01
      1.5232725540361881e-02 -1.3103212269458900e-01
      2.8123532561258258e-02 4.3487342111997805e-02
      -7.6600736095011376e-02 -2.1801267474185193e-01
      -7.1169857729816391e-02 -2.0268282594919027e-01
      2.0069669473668054e-02 -5.3042359660004562e-02
      -2.4788761694816661e-01 1.5955924069084168e-01
      -9.0714726369710036e-02 1.1974546363136467e-01
      -3.3555965543963554e-03 3.7374549624892917e-03
      -4.7148998037500247e-03 -3.9956019934240371e-03
      3.0853571292469776e-03 -8.5937018521248254e-04
      -8.3520603330754825e-04 4.9120159592065636e-03
      2.4725078780589980e-03 -2.8390325771746098e-03
      -5.7611114526555005e-04 2.6779468120677078e-03
      -3.4979816568071688e-04 -5.5169891319183540e-04
      4.7831323069604014e-03 2.4031889164580129e-03
      1.5962746638879804e-03 3.7595919279761842e-03
      3.7803101298203466e-03 -3.8723684999846511e-03
      4.2620451853506418e-03 -3.3276377804797312e-03
      9.8607530712786686e-04 -4.3936673858386921e-03
      2.2855159774464455e-03 -6.9380186998721917e-04
      -1.4835708363362514e-03 4.9319805098476830e-03
      3.0652274367351674e-03 -4.7479043274974170e-03
      -2.4327483004013355e-03 3.7719969246933919e-03
      2.9232389960766640e-04 -4.6234860891485804e-03
      2.8309597842076490e-03 2.4212848976337968e-03
      -5.4917101488083343e-04 2.6480004921345143e-03
      -2.7355648496077203e-03 -3.1906864358858347e-03
      -3.7805112717615116e-03 2.8430560015367842e-03
      -1.7315201288370481e-03 2.3077181219381005e-03
      2.2559634523694524e-03 -3.1381226897904328e-03
      9.2776508508320198e-04 -4.5612052100042558e-03
      -3.5760481671365651e-03 -2.9404027017809532e-03
      7.1371013765999050e-04 1.3306176714520314e-03
      -3.3449422960983312e-03 -5.1212591550874292e-04
      3.8531774880468427e-03 4.4045517569457800e-03
      3.3352426572236292e-03 -9.2750637592581688e-04
      1.5355583298427657e-03 1.2232715094034120e-03
      2.7693458535197782e-03 3.6764150958786732e-03
      -1.3459327121163474e-03 -1.9441467269629880e-03
      2.5910236542638255e-04 -7.8163481009277066e-04
      -3.1950968520877226e-03 -3.4621298228059024e-03
      3.4670864873508722e-03 1.3994578999923530e-03
      4.5207326082117383e-03 -3.4760506731986726e-03
      -2.9291766493994100e-03 8.2032975386510897e-04
      2.9272855785019585e-03 1.3299464786958848e-03
      1.5813584428991535e-03 4.2622754594919638e-03
      3.5626388732747736e-03 3.1096096517119623e-03
      -3.3874072485861528e-01 -5.4787883990493016e-02
      -8.9282815566048085e-02 1.4371712948824184e-02
      -1.1198476788948294e-02 -1.0259603311038624e-01
      9.1862736129421196e-02 4.8338929147077559e-03
      1.2146531443758992e-02 5.4119783811492336e-02
      -5.0606643038689579e-02 9.4733739550262028e-02
      -2.5130152333553675e-03 1.5510884454497492e-01
      4.3734454655692909e-02 -4.9420888159451205e-02
      5.3780341066726181e-03 -1.3429136189622590e-01
      7.8684313056691171e-02 3.0044267130386881e-02
      2.7338535965197580e-01 -1.7709017807101943e-01
      -8.2590506941099248e-02 -1.0797508411750058e-01
      3.6851263454584754e-02 -1.1201308317103137e-01
      -7.3395350791661942e-02 -1.4906425685371891e-01
      9.2471490270002121e-02 8.6003551067210901e-02
      6.5171312588703526e-02 5.1438827370144605e-03
      -1.1800397206805009e-01 1.9543898021041667e-01
      -1.2449788381600654e-01 1.2786599330857332e-02
      8.3657798403686590e-02 -1.3561346017806242e-01
      -6.0041276305541215e-02 -6.2995998303531399e-04
      1.0994797497504176e-01 -1.6594222719292862e-01
      -3.9033189720696754e-01 -6.6209568113120482e-02
      2.3414628159743631e-02 -3.7128606421301075e-01
      1.8010720080345141e-01 -5.4690121047942158e-02
      1.1204638747966091e-01 -1.7005228814563538e-03
      -5.3175838944841423e-02 3.6387578420836442e-01
      -4.3576363909421253e-02 4.7343475538914087e-01
      -5.4082848351513536e-03 -7.0362257596788061e-02
      6.6056921555591730e-02 -4.4668326841644063e-01
      2.9442667208258211e-01 7.3147933357767703e-02
      -9.3202964434950708e-01 1.9342072860561038e-01
      -7.5115648175160102e-02 8.9561021832298915e-02
      -2.0951235270814998e-02 -6.7983003626200772e-02
      8.2491262946133515e-02 6.6133965142236698e-02
      -1.1557340972536842e-01 -5.8875244992880695e-02
      -7.2742874132189730e-02 -1.5689182403331906e-02
      7.9598032889672890e-02 -7.1560292718475596e-02
      1.1214343733932620e-01 -5.0887454491533174e-02
      -1.4578263439956196e-01 3.3717236464311909e-04
      1.3758387223903595e-01 4.8694181217665458e-02
      -7.4787059147837676e-01 1.7001228879931954e-01
      -5.0529768783969913e-02 9.4764449035172865e-02
      -4.1089353307015693e-02 -4.7385433582108942e-02
      4.4895509550615859e-02 7.8524911315937279e-02
      -1.1989292929571899e-01 -6.2422031796339469e-02
      -5.5015124962059847e-02 -2.4152019022013398e-02
      8.2618982624353160e-02 -1.1857307818026186e-01
      9.1863567395757101e-02 -1.8852359948210152e-02
      -1.0614448211317658e-01 2.1649736132576838e-02
      9.1760632986334009e-02 2.3013091296278036e-02
      -4.8997245964291758e-01 -3.5150002572247242e-02
      -1.3338804612732288e-02 5.0965674973758882e-02
      -8.2752295175044024e-02 1.3389318440110000e-02
      -5.7549425117062000e-02 1.6487151736136443e-01
      -1.2357270754043921e-01 5.8204820156812900e-02
      6.2304305696483361e-02 -4.3395411476150163e-03
      1.0564862017694557e-01 -1.0662637639099802e-02
      -2.8450504751928663e-02 4.4532416382771035e-02
      5.8455123926134757e-02 3.3104226259102969e-02
      2.4463675114757839e-02 -7.4027246003574104e-02
      -4.5922027850641527e-02 -1.0066515140029418e-01
      1.6281966137984393e-02 -2.4425497331381128e-02
      -3.3380869261522922e-02 3.2532282723338544e-02
      -1.1716617041512220e-01 1.4434772237980661e-01
      -9.4615364122240114e-02 5.4757382101052993e-02
      1.1005301537558379e-01 -3.7209943041488835e-02
      8.4397573423010241e-02 -2.5380504486848254e-02
      -8.4173693093111401e-02 8.7740277901359215e-02
      1.1364551494589419e-01 5.9781346801455429e-02
      5.0301723546578685e-03 -1.3011090265058106e-01
      -1.7836424295423195e-01 -3.5456840811070572e-03
      2.9651400669708467e-02 6.2124714095668845e-02
      1.3683741039356647e-02 -1.3301591943485659e-03
      1.0111263465508420e-01 1.5561913325079121e-01
      7.0988906570628132e-02 -3.5252374847723485e-02
      -4.8561627810272859e-02 9.0881270226898514e-02
      7.3461899090567911e-02 8.8894831894228032e-02
      1.4110611638112239e-01 -2.6439036974362111e-02
      -1.2972733970390561e-02 -8.1640654601782270e-02
      8.7036484627355790e-02 2.9947890487597620e-02
      2.7550541915939281e-02 -8.3576624494709317e-02
      -3.9631481406509367e-03 -3.4741542217189045e-02
      7.2251185650350266e-03 -6.8562319025203648e-03
      -7.2231602387893584e-02 6.8295297000008484e-02
      -5.4877648988368388e-02 6.7675632814097483e-02
      8.2369992552219953e-02 -3.1246921886719996e-02
      4.1840308414905061e-02 -1.4222078264752937e-02
      -5.7029655447042471e-02 6.4643170353370513e-02
      8.7559869881763300e-02 4.6861431973533242e-02
      1.9928425185939874e-02 -1.0137047375536890e-01
      -1.3281406566265180e-01 4.8074483129065711e-03
      6.1142282406821694e-02 1.9837723594820188e-04
      1.8109527876529908e-02 5.2638742924498057e-02
      -1.4807992192233724e-02 -1.0096392210245113e-01
      -1.3627231769911586e-02 1.1793577327887075e-02
      4.7640235141949237e-03 -1.3640485468576957e-01
      -3.6326133788665727e-02 -4.8034001372832216e-02
      2.8425366857373586e-02 1.3270671177357328e-02
      -6.6930207899483214e-04 5.8848923647671331e-02
      -5.6712018110092736e-02 -1.5464492539666589e-02
      7.4391553656019266e-02 3.9780998115193325e-02
      6.2545001582707441e-02 -7.5906823868248624e-02
      4.0939796424319101e-02 5.2932068541661957e-02
      -7.4634470754688445e-02 -7.5253020792809669e-02
      2.0592041599245957e-02 5.5642009081184975e-02
      4.5549618044262490e-02 -9.5397475998922718e-02
      -5.0170071339083168e-02 -4.5481252595032308e-02
      -8.2577056916922006e-02 2.5336669795495936e-02
      -4.3879212342574768e-02 6.2046215454221891e-02
      -4.0387664840462412e-02 1.1301476575066612e-02
      -4.3838735000477280e-01 1.6900478390745693e-01
      1.0207125858032949e-01 1.0784939350626106e-01
      2.1619378260880482e-02 8.1885461227462472e-02
      1.3395038710157181e-01 1.9877617573109387e-02
      3.1486213958177432e-02 -1.0738420804177376e-01
      -1.3022152422879404e-01 -3.1187858731325548e-02
      -1.9626884974113391e-05 -3.9532835133855394e-02
      2.5626741208432247e-01 -6.4802655690788982e-02
      -1.0461424228729561e-01 -1.4011455874568830e-03
      -1.1840740009725318e-02 8.6263381052973681e-02
      -8.5326956045780264e-02 1.2614708314914361e-02
      -1.7576715215239559e-02 3.9287570845895042e-02
      2.8310343288301745e-02 -2.8414723521261565e-02
      1.0230450487247462e-01 6.3893654948339762e-02
      2.9496681840152479e-02 -3.2774740096691977e-02
      -4.1082833465175980e-02 7.2005021666331714e-02
      1.8317845074895946e-02 6.9201328558686714e-02
      1.5018023514217810e-01 -8.3554401547986136e-03
      1.2798699346647137e-02 -7.5994589479589522e-02
      7.3574295606708778e-02 4.4031400157846295e-03
      -1.7534495329150673e-01 6.3211254537236861e-02
      4.0011511085554341e-02 6.2245719113423567e-02
      -1.7426853241034911e-03 3.1422219818782821e-02
      5.8023028140544247e-02 2.2255813494418759e-02
      7.4339600863009983e-03 -5.7847990016340785e-02
      -5.7790230939383638e-02 5.8181353456652502e-03
      5.1739363041787773e-03 -1.0484714345764944e-02
      1.4781972769274587e-01 -1.7933326133935012e-02
      -2.5518589565582669e-02 -1.2657576114657705e-02
      2.6056439390610784e-02 2.0417241260794944e-02
      -1.9311913272205086e-01 5.6764128570714591e-02
      8.3966005828722892e-02 1.4219662376392574e-02
      1.9096554821754663e-02 7.0344111305578896e-02
      1.7344970992599330e-02 -9.1998504506124942e-02
      1.4308788678773844e-02 -1.4539968925279983e-02
      -4.1333023142858749e-02 -1.1338540133360477e-01
      -3.6692548448871647e-02 -5.1471670329117009e-02
      6.3421863850186944e-02 -1.7255762390646311e-02
      -5.0778985247204728e-02 5.4586659905934698e-02
      -5.1173016742302332e-02 2.9789465944436051e-02
      -2.2421760864512638e-01 5.8317292661534868e-02
      8.3598999172076360e-02 1.6986667583886176e-02
      2.8097500877203536e-02 7.2851575747507516e-02
      2.4240083531028106e-02 -9.1050789951645644e-02
      9.6506605198442529e-03 -1.8795644641807364e-02
      -4.9930730734215147e-02 -1.1709840885089261e-01
      -3.6205950759910573e-02 -5.4057460951505869e-02
      8.1413832518335144e-02 -2.3333432595771090e-02
      -5.1027980855317276e-02 6.3227529740394306e-02
      -4.7585628440752634e-02 3.6582952022793248e-02
      -2.5917955596104535e-03 1.1962481128178874e-03
      1.5508605814675165e-03 -1.1021266143995574e-03
      -1.9287980861401536e-03 -7.2920263522253438e-04
      3.4563753369666194e-03 2.0307709378364247e-03
      5.0414979630632141e-03 -1.1900796744836763e-03
      3.3722196869493850e-03 1.1673550068023804e-03
      1.3942997812011353e-03 -6.1610497278214978e-04
      -2.7773388321028094e-05 -2.5634487667196512e-03
      -3.4076013117351977e-03 4.2623685579221485e-03
      -3.6646613073533910e-03 1.1466811904865249e-03
      -2.1000612915383523e-03 2.1887883241173672e-03
      -1.5025485975379638e-03 3.6226011896381238e-03
      -2.1807265111798849e-03 -6.1306843503962220e-04
      4.8424253919813554e-03 1.8491775545414178e-03
      4.7846055141080915e-04 2.4292737841699625e-03
      -2.6848742032259338e-03 3.0299176915991369e-03
      4.4410518388988771e-03 4.6617084111642750e-04
      1.0349626672791789e-03 3.7544699567436174e-03
      4.0532388440455312e-03 -2.4861587064405133e-03
      -2.8962832552822931e-03 -2.7196263689473303e-03
      3.0197963199223342e-03 -6.0033418847978170e-04
      -1.6479353631905210e-03 4.5211842346602549e-03
      -4.2496020357436163e-03 -3.3882000579538007e-03
      1.5586749138049012e-03 4.6582806178907653e-03
      -1.5969529276108614e-03 -2.6397758273322414e-03
      2.7982083731269594e-03 1.3456707810628450e-03
      5.0605417231225566e-03 2.3132478851204054e-03
      -3.0738866507394932e-03 1.5328665297988794e-03
      -1.5702418639330527e-04 -7.0193434670250392e-04
      2.8740503482362779e-03 -3.7041000971015300e-03
      1.3259221325869197e-01 -1.2210406067531246e-01
      -7.7614564968184252e-02 -7.0292996179706010e-02
      6.5447838989482976e-02 -9.2384241760384775e-02
      8.0172566517427539e-03 -8.6675285820878703e-02
      5.0322820271150467e-02 8.7131844318731486e-02
      3.0033818835004507e-02 3.6165690742492727e-02
      -6.3494001340562295e-02 1.4450246936828587e-01
      -7.0705675748049604e-02 -7.2918783698856003e-03
      4.8722501618223585e-02 -9.0090913925110774e-02
      -1.1562060184948200e-02 -1.2036960830185870e-03
      6.8301230606773386e-02 -7.7612178602467399e-02
